%YAML:1.0
---
opencv_ml_svm:
   format: 3
   svmType: C_SVC
   kernel:
      type: RBF
      gamma: 3.3750000000000002e-02
   C: 1.2500000000000000e+01
   term_criteria: { epsilon:1.1920928955078125e-07, iterations:1000 }
   var_count: 144
   class_count: 10
   class_labels: !!opencv-matrix
      rows: 10
      cols: 1
      dt: i
      data: [ 0, 1, 2, 3, 4, 5, 6, 7, 8, 9 ]
   sv_total: 273
   support_vectors:
      - [ 4.84379262e-01, 4.84379262e-01, 1.41150683e-01, 0.,
          4.84379262e-01, 1.85589969e-01, 4.62006889e-02, 1.29396403e-02,
          4.84379262e-01, 4.51182991e-01, 3.40885431e-01, 0.,
          2.08306178e-01, 4.51182991e-01, 4.51182991e-01, 1.47087157e-01,
          0., 4.51182991e-01, 4.25642014e-01, 4.25642014e-01,
          9.13124233e-02, 2.82668114e-01, 4.25642014e-01, 4.25642014e-01,
          4.06582244e-02, 0., 4.25642014e-01, 3.32004845e-01,
          3.76253456e-01, 1.70176312e-01, 8.74862298e-02, 3.76253456e-01,
          3.76253456e-01, 3.76253456e-01, 3.76253456e-01, 3.76253456e-01,
          1.48226187e-01, 4.02777731e-01, 4.02777731e-01, 0.,
          4.02777731e-01, 4.02777731e-01, 4.02777731e-01, 4.02777731e-01,
          2.50177626e-02, 9.77145955e-02, 6.95520872e-03, 0.,
          1.52592480e-01, 6.29198372e-01, 6.29198372e-01, 3.78959328e-01,
          5.82730062e-02, 1.48492008e-01, 7.37142703e-03, 4.85470295e-01,
          4.85470295e-01, 2.27481201e-01, 4.85470295e-01, 4.85470295e-01,
          2.44492367e-02, 0., 5.07530291e-03, 9.46993008e-03,
          4.96368796e-01, 4.96368796e-01, 2.46413443e-02, 5.89195602e-02,
          3.77468988e-02, 4.96368796e-01, 4.96368796e-01, 6.26195148e-02,
          5.71277961e-02, 3.28930318e-01, 5.37576914e-01, 4.10844535e-02,
          0., 7.61353076e-02, 5.37576914e-01, 5.37576914e-01,
          9.33890715e-02, 4.42298174e-01, 4.42298174e-01, 3.52433890e-01,
          0., 0., 0., 4.42298174e-01, 2.98096657e-01, 4.42298174e-01,
          4.87826109e-01, 4.87826109e-01, 4.87826109e-01, 2.05908611e-01,
          2.88462024e-02, 0., 0., 0., 4.87826109e-01, 2.82625884e-01,
          2.92209506e-01, 3.78631622e-01, 3.78631622e-01, 5.79634793e-02,
          3.78631622e-01, 3.78631622e-01, 3.78631622e-01, 3.32842529e-01,
          3.40379417e-01, 3.40379417e-01, 3.40379417e-01, 2.64072061e-01,
          3.40379417e-01, 3.40379417e-01, 3.40379417e-01, 3.40379417e-01,
          3.40379417e-01, 3.94466817e-01, 2.98417330e-01, 3.40445817e-01,
          2.17308123e-02, 3.94466817e-01, 3.94466817e-01, 1.20896041e-01,
          3.91916513e-01, 3.94466817e-01, 4.12179857e-01, 4.12179857e-01,
          3.12508434e-01, 1.83822796e-01, 4.12179857e-01, 4.12179857e-01,
          1.18558533e-01, 3.02128308e-02, 4.12179857e-01, 3.28919232e-01,
          3.59232038e-01, 2.49699131e-01, 2.27128848e-01, 3.59232038e-01,
          3.59232038e-01, 3.59232038e-01, 3.59232038e-01, 3.59232038e-01 ]
      - [ 4.42568153e-01, 4.42568153e-01, 3.74915153e-01, 0.,
          4.06915367e-01, 3.17479819e-01, 3.23196054e-02, 0.,
          4.42568153e-01, 4.22784567e-01, 3.49270910e-01, 1.32808968e-01,
          9.73994285e-02, 4.22784567e-01, 4.22784567e-01, 1.62182391e-01,
          3.24609548e-01, 4.22784567e-01, 3.86915475e-01, 3.86915475e-01,
          2.44322523e-01, 3.86915475e-01, 3.86915475e-01, 3.86915475e-01,
          1.86474815e-01, 1.14981085e-01, 3.74071658e-01, 2.88027704e-01,
          3.39408129e-01, 3.39408129e-01, 3.27511191e-01, 3.39408129e-01,
          3.39408129e-01, 3.39408129e-01, 3.39408129e-01, 3.39408129e-01,
          2.67415464e-01, 4.19362277e-01, 4.19362277e-01, 0.,
          4.19362277e-01, 4.19362277e-01, 4.19362277e-01, 1.85462058e-01,
          1.02859683e-01, 2.11324617e-01, 5.55421412e-02, 3.10600991e-03,
          2.17896029e-02, 6.07808530e-01, 6.07808530e-01, 4.09941375e-01,
          1.35433108e-01, 1.42994255e-01, 3.64726782e-02, 3.45414162e-01,
          4.90921170e-01, 2.56222367e-01, 4.90921170e-01, 4.90921170e-01,
          2.65593767e-01, 1.10965006e-01, 5.42374663e-02, 3.38331833e-02,
          4.93047237e-01, 4.93047237e-01, 2.35260978e-01, 5.64726591e-02,
          1.91439316e-01, 4.93047237e-01, 4.08193171e-01, 5.32605909e-02,
          1.07707717e-01, 4.59584057e-01, 4.97308731e-01, 1.17559526e-02,
          9.86155868e-02, 2.78278794e-02, 4.97308731e-01, 4.97308731e-01,
          1.40104115e-01, 4.44747269e-01, 4.44747269e-01, 2.40670368e-01,
          7.28900731e-02, 0., 5.47718816e-03, 4.44747269e-01,
          3.75621587e-01, 4.44747269e-01, 5.07343948e-01, 5.07343948e-01,
          1.89320102e-01, 1.36440948e-01, 2.87168771e-01, 2.91274488e-01,
          1.68558061e-02, 2.62747798e-02, 5.07343948e-01, 3.53252500e-01,
          3.53252500e-01, 3.15810740e-01, 1.52390346e-01, 3.53252500e-01,
          3.53252500e-01, 3.53252500e-01, 3.53252500e-01, 3.53252500e-01,
          3.54113698e-01, 3.54113698e-01, 3.54113698e-01, 2.08838046e-01,
          3.54113698e-01, 3.54113698e-01, 2.73994923e-01, 3.54113698e-01,
          3.54113698e-01, 4.04757798e-01, 4.04757798e-01, 7.59127736e-02,
          7.85297528e-02, 4.04757798e-01, 4.04757798e-01, 2.80750841e-01,
          2.93362349e-01, 4.04757798e-01, 4.26011384e-01, 3.47084761e-01,
          1.51994303e-01, 4.25125539e-01, 4.26011384e-01, 4.26011384e-01,
          2.49743715e-01, 1.39822975e-01, 2.12280944e-01, 3.30764621e-01,
          1.04583286e-01, 0., 0., 6.23292387e-01, 6.23292387e-01,
          2.57227391e-01, 8.65962952e-02, 1.50938153e-01 ]
      - [ 4.73335117e-01, 4.73335117e-01, 1.21929288e-01, 0.,
          4.73335117e-01, 2.87047178e-01, 4.23567593e-02, 5.53429127e-03,
          4.73335117e-01, 4.26949352e-01, 3.43194246e-01, 1.29110381e-01,
          9.46869478e-02, 4.26949352e-01, 4.26949352e-01, 1.84129447e-01,
          2.98782289e-01, 4.26949352e-01, 3.93908352e-01, 3.93908352e-01,
          1.80128440e-01, 3.90686065e-01, 3.93908352e-01, 3.93908352e-01,
          1.51003703e-01, 1.11184143e-01, 3.93908352e-01, 3.60485256e-01,
          1.90528139e-01, 3.60485256e-01, 3.60485256e-01, 3.60485256e-01,
          3.60485256e-01, 3.60485256e-01, 2.24610999e-01, 3.60485256e-01,
          2.54552901e-01, 3.91107172e-01, 3.91107172e-01, 0.,
          3.91107172e-01, 3.91107172e-01, 3.91107172e-01, 3.91107172e-01,
          1.16218552e-01, 2.01351821e-01, 5.73400781e-02, 3.15878214e-03,
          2.21598167e-02, 5.94822347e-01, 5.94822347e-01, 4.39819694e-01,
          1.47319019e-01, 1.64188281e-01, 1.99074790e-01, 0.,
          3.83755080e-02, 2.69215822e-01, 5.88381231e-01, 5.88381231e-01,
          3.37060362e-01, 1.46805331e-01, 2.30212688e-01, 1.86889961e-01,
          4.82372433e-01, 4.82372433e-01, 7.07240179e-02, 3.50806564e-01,
          6.56620115e-02, 4.82372433e-01, 3.08055580e-01, 1.86889961e-01,
          2.31148422e-01, 3.76824528e-01, 4.69846785e-01, 3.10655177e-01,
          1.54935449e-01, 0., 4.69846785e-01, 4.69846785e-01,
          1.30771115e-01, 4.73949909e-01, 4.73949909e-01, 1.91825211e-01,
          0., 1.27932742e-01, 1.87546715e-01, 2.72870362e-01,
          3.98227185e-01, 4.73949909e-01, 4.60411221e-01, 4.60411221e-01,
          1.73780411e-01, 0., 4.60411221e-01, 3.36873829e-01,
          3.67921181e-02, 4.94976714e-02, 4.60411221e-01, 3.72131705e-01,
          3.36719632e-01, 2.40009129e-01, 0., 3.72131705e-01,
          3.72131705e-01, 3.72131705e-01, 3.64537686e-01, 3.72131705e-01,
          3.60879630e-01, 3.60879630e-01, 3.57716888e-01, 3.60879630e-01,
          3.60879630e-01, 3.60879630e-01, 2.82996982e-01, 1.33325979e-01,
          3.45542103e-01, 4.35228020e-01, 4.35228020e-01, 3.40385176e-02,
          0., 4.35228020e-01, 4.35228020e-01, 1.57277271e-01,
          1.50467232e-01, 4.35228020e-01, 3.96396399e-01, 3.95367444e-01,
          1.55084267e-01, 0., 5.52552462e-01, 5.52552462e-01,
          1.09558769e-01, 8.04256275e-02, 1.66989312e-01, 2.17088103e-01,
          7.52163976e-02, 0., 0., 6.34988546e-01, 6.34988546e-01,
          3.18929970e-01, 1.07089125e-01, 1.45843193e-01 ]
      - [ 4.65597540e-01, 3.15304518e-01, 4.56081361e-01, 1.17850907e-01,
          4.65597540e-01, 1.27519667e-01, 5.49469031e-02, 6.64069355e-02,
          4.65597540e-01, 4.25578982e-01, 2.24081203e-02, 3.26745324e-02,
          2.95760572e-01, 4.25578982e-01, 4.25578982e-01, 4.25578982e-01,
          3.34286392e-02, 4.25578982e-01, 4.82193917e-01, 2.09250048e-01,
          7.06715658e-02, 4.82193917e-01, 4.82193917e-01, 1.15389861e-01,
          5.43613844e-02, 9.48662683e-03, 4.82193917e-01, 4.02532727e-01,
          2.58312643e-01, 3.09359401e-01, 0., 4.02532727e-01,
          1.52928382e-01, 4.02532727e-01, 4.02532727e-01, 4.02532727e-01,
          1.44924358e-01, 2.15051219e-01, 3.48961115e-01, 5.16461916e-02,
          5.08851707e-01, 1.60355300e-01, 5.08851707e-01, 5.08851707e-01,
          2.68849991e-02, 0., 0., 1.23074315e-02, 1.11403354e-01,
          6.57748878e-01, 6.57748878e-01, 3.36562127e-01, 4.82691005e-02,
          0., 0., 4.43077594e-01, 5.96062958e-01, 2.66389042e-01,
          5.96062958e-01, 1.01118073e-01, 7.49382451e-02, 1.85660832e-02,
          0., 1.02612257e-01, 4.80230331e-01, 4.80230331e-01,
          8.86917785e-02, 2.32752740e-01, 1.22277243e-02, 4.80230331e-01,
          4.80230331e-01, 0., 1.65433198e-01, 9.95257571e-02,
          3.50948364e-01, 3.67399514e-01, 0., 0., 5.68357527e-01,
          5.68357527e-01, 2.29876786e-01, 6.03612304e-01, 3.33402097e-01,
          3.92581880e-01, 0., 0., 0., 0., 0., 6.03612304e-01,
          5.15524805e-01, 4.44470614e-01, 5.15524805e-01, 0., 0., 0., 0.,
          0., 5.15524805e-01, 3.60435992e-01, 3.23801398e-01,
          3.78547221e-01, 3.78547221e-01, 2.41734579e-01, 0.,
          3.78547221e-01, 3.60318244e-01, 3.78547221e-01, 4.17412043e-01,
          1.97456241e-01, 4.17412043e-01, 1.69304937e-01, 4.17412043e-01,
          1.00607276e-01, 2.61534035e-01, 3.90799314e-01, 4.17412043e-01,
          4.29910719e-01, 1.95575342e-01, 1.82534352e-01, 0.,
          4.29910719e-01, 4.29910719e-01, 4.56376653e-03, 4.29910719e-01,
          4.29910719e-01, 4.56203431e-01, 4.56203431e-01, 3.90719026e-01,
          0., 4.56203431e-01, 3.91028002e-02, 1.83811528e-04,
          9.36296433e-02, 4.56203431e-01, 4.17584240e-01, 2.44542789e-02,
          7.92492628e-02, 4.12950963e-02, 4.17584240e-01, 4.17584240e-01,
          4.12663013e-01, 3.45612049e-01, 4.17584240e-01 ]
      - [ 4.78240579e-01, 4.78240579e-01, 1.17206097e-01, 0.,
          4.30729359e-01, 3.30395639e-01, 2.55890656e-02, 0.,
          4.78240579e-01, 4.33183819e-01, 4.33183819e-01, 0.,
          8.57341141e-02, 4.33183819e-01, 4.33183819e-01, 2.23789066e-01,
          0., 4.33183819e-01, 4.38586235e-01, 4.38586235e-01,
          1.15935504e-01, 1.31837726e-01, 4.38586235e-01, 4.38586235e-01,
          1.51297197e-01, 0., 4.15300280e-01, 2.16705844e-01,
          3.62681925e-01, 3.62681925e-01, 1.69256374e-01, 3.62681925e-01,
          3.62681925e-01, 3.62681925e-01, 3.62681925e-01, 3.62681925e-01,
          3.60025108e-01, 3.60025108e-01, 3.60025108e-01, 0.,
          3.60025108e-01, 3.60025108e-01, 3.60025108e-01, 3.60025108e-01,
          2.98456699e-01, 2.12332472e-01, 1.74450144e-01, 0.,
          1.79404896e-02, 6.02526069e-01, 6.02526069e-01, 3.99239749e-01,
          2.31932681e-02, 1.79272249e-01, 4.18562531e-01, 4.36949581e-01,
          4.36949581e-01, 6.53556213e-02, 4.36949581e-01, 4.36949581e-01,
          1.36738792e-01, 0., 1.83771759e-01, 1.00846313e-01,
          4.90625232e-01, 4.90625232e-01, 1.28215909e-01, 2.42635477e-02,
          2.95837581e-01, 4.90625232e-01, 3.97674382e-01, 9.87402443e-03,
          1.50305226e-01, 4.03291315e-01, 5.11096597e-01, 5.55961393e-02,
          5.05197346e-02, 6.20129239e-03, 5.11096597e-01, 5.11096597e-01,
          1.42545745e-01, 5.19709826e-01, 5.19709826e-01, 1.47600859e-01,
          1.21336460e-01, 5.30075058e-02, 8.84057432e-02, 3.58240008e-01,
          9.51039940e-02, 5.19709826e-01, 4.36575741e-01, 4.36575741e-01,
          7.46936128e-02, 1.72694668e-01, 4.36575741e-01, 4.36575741e-01,
          8.51149485e-02, 1.16343770e-04, 4.36575741e-01, 4.28545207e-01,
          4.28545207e-01, 1.65928781e-01, 3.33900675e-02, 3.80783945e-01,
          4.28545207e-01, 4.28545207e-01, 1.40155196e-01, 2.60438144e-01,
          3.50031227e-01, 3.50031227e-01, 3.50031227e-01, 2.67512828e-01,
          3.50031227e-01, 3.50031227e-01, 3.50031227e-01, 2.59396583e-01,
          3.50031227e-01, 4.33256447e-01, 4.01933610e-01, 1.38287824e-02,
          4.31600772e-02, 4.33256447e-01, 4.33256447e-01, 2.84097672e-01,
          2.26151906e-02, 4.33256447e-01, 3.53976488e-01, 4.07856077e-01,
          2.50332430e-02, 2.99507678e-01, 4.66468424e-01, 4.66468424e-01,
          3.79643023e-01, 7.73507927e-04, 1.84521884e-01, 1.53241396e-01,
          5.15525863e-02, 0., 0., 6.60053372e-01, 6.60053372e-01,
          2.84564614e-01, 0., 1.22278370e-01 ]
      - [ 4.77560908e-01, 4.77560908e-01, 1.71362624e-01, 1.29077405e-01,
          3.76972079e-01, 3.47534776e-01, 4.60688435e-02, 0.,
          4.77560908e-01, 4.10852671e-01, 4.10852671e-01, 1.31737769e-01,
          9.66138318e-02, 4.10852671e-01, 4.10852671e-01, 1.79626986e-01,
          3.04862499e-01, 4.10852671e-01, 3.97566199e-01, 3.97566199e-01,
          1.87634423e-01, 3.97566199e-01, 3.97566199e-01, 3.97566199e-01,
          2.51914561e-01, 1.15817212e-01, 3.06027353e-01, 2.24925578e-01,
          3.89868766e-01, 3.89868766e-01, 5.76331168e-02, 3.89868766e-01,
          3.89868766e-01, 3.89868766e-01, 3.89868766e-01, 1.73799604e-01,
          3.34005684e-01, 3.34005684e-01, 3.34005684e-01, 3.34005684e-01,
          3.34005684e-01, 3.34005684e-01, 3.34005684e-01, 3.22775990e-01,
          3.34005684e-01, 2.76717246e-01, 1.13116384e-01, 2.83442042e-03,
          1.98843200e-02, 6.06078923e-01, 6.06078923e-01, 3.40347141e-01,
          1.57217085e-01, 1.70178458e-01, 4.28713083e-01, 2.76473314e-01,
          3.28413956e-02, 2.30392337e-01, 4.28713083e-01, 4.28713083e-01,
          3.37871373e-01, 1.25634596e-01, 4.28713083e-01, 4.58763659e-01,
          4.58763659e-01, 4.58763659e-01, 1.07226558e-01, 1.47768527e-01,
          2.80643851e-01, 4.58763659e-01, 1.25740856e-01, 1.60176471e-01,
          1.94165677e-01, 4.17175531e-01, 4.17175531e-01, 0.,
          3.20256613e-02, 2.94838071e-01, 4.17175531e-01, 4.17175531e-01,
          4.17175531e-01, 4.51352030e-01, 4.51352030e-01, 6.26349077e-02,
          0., 1.84817240e-01, 2.82611310e-01, 4.44825530e-01,
          2.61756092e-01, 4.51352030e-01, 4.09199685e-01, 4.09199685e-01,
          3.76550823e-01, 4.73597907e-02, 4.09199685e-01, 4.09199685e-01,
          1.21065646e-01, 0., 4.09199685e-01, 4.04214591e-01,
          4.04214591e-01, 1.44065082e-01, 2.74170935e-02, 4.04214591e-01,
          4.04214591e-01, 4.04214591e-01, 4.93843341e-03, 3.96842450e-01,
          3.59539568e-01, 3.59539568e-01, 3.59539568e-01, 3.07719231e-01,
          3.59539568e-01, 3.59539568e-01, 3.22151870e-01, 1.59455568e-01,
          3.55197638e-01, 4.75919068e-01, 3.00190479e-01, 3.20307631e-03,
          0., 4.75919068e-01, 4.75919068e-01, 2.61349499e-01,
          4.78763841e-02, 3.93737584e-01, 3.94984633e-01, 2.55067766e-01,
          1.73154220e-01, 3.09891794e-02, 5.54785669e-01, 5.54785669e-01,
          3.24323028e-01, 0., 1.47258103e-01, 1.14533454e-01,
          1.82089154e-02, 4.29793261e-02, 9.04159527e-03, 6.71539664e-01,
          6.71539664e-01, 2.63209909e-01, 3.54157621e-03, 8.18199664e-02 ]
      - [ 4.70580876e-01, 4.70580876e-01, 3.43785062e-02, 4.96678986e-02,
          4.70580876e-01, 3.25018793e-01, 1.51096350e-02, 0.,
          4.70580876e-01, 4.03580993e-01, 2.43994266e-01, 7.32751191e-02,
          2.08355591e-01, 4.03580993e-01, 4.03580993e-01, 3.99463624e-01,
          2.76716590e-01, 4.03580993e-01, 4.58084881e-01, 3.52640629e-01,
          1.18151627e-01, 2.30328083e-01, 4.58084881e-01, 4.06030625e-01,
          9.26696807e-02, 3.29289883e-02, 4.58084881e-01, 3.56939405e-01,
          3.56939405e-01, 3.56939405e-01, 0., 3.56939405e-01,
          3.23409379e-01, 3.56939405e-01, 3.56939405e-01, 3.56939405e-01,
          2.27547258e-01, 3.40495527e-01, 1.71973154e-01, 6.76676482e-02,
          4.43224728e-01, 4.43224728e-01, 4.43224728e-01, 4.43224728e-01,
          8.89466926e-02, 1.10841878e-01, 2.89513334e-03, 9.73542966e-03,
          6.82969838e-02, 6.26302123e-01, 6.26302123e-01, 4.01949257e-01,
          1.42108947e-01, 1.02109902e-01, 0., 4.61753488e-01,
          5.83047509e-01, 1.23675734e-01, 5.83047509e-01, 2.59422570e-01,
          1.29214764e-01, 4.21992466e-02, 0., 0., 5.12152731e-01,
          5.12152731e-01, 5.26917875e-02, 7.97752291e-02, 9.59224924e-02,
          5.12152731e-01, 4.35479283e-01, 0., 4.86003160e-01,
          2.27064148e-01, 3.59936476e-01, 6.55223504e-02, 0.,
          7.73585290e-02, 4.86003160e-01, 4.86003160e-01, 3.08478326e-01,
          5.07363081e-01, 4.08457428e-01, 4.94305253e-01, 2.16811569e-03,
          5.65200485e-02, 0., 0., 2.56366640e-01, 5.07363081e-01,
          5.07952154e-01, 5.07952154e-01, 2.72648484e-01, 1.08780013e-03,
          3.73007625e-01, 8.55073556e-02, 4.23362805e-03, 8.83771107e-03,
          5.07952154e-01, 3.81044418e-01, 2.94641048e-01, 3.81044418e-01,
          2.63723582e-01, 1.86283961e-01, 3.81044418e-01, 3.81044418e-01,
          2.81342745e-01, 3.81044418e-01, 4.05361325e-01, 3.35201859e-01,
          1.60900518e-01, 3.01537484e-01, 4.05361325e-01, 4.05361325e-01,
          3.20905536e-01, 8.07769373e-02, 4.05361325e-01, 4.34874445e-01,
          1.56303540e-01, 2.78296709e-01, 2.68874248e-03, 4.34874445e-01,
          4.34874445e-01, 1.56964034e-01, 3.35660547e-01, 4.34874445e-01,
          5.17104268e-01, 2.39071354e-01, 2.30808213e-01, 3.24429478e-03,
          5.17104268e-01, 5.17104268e-01, 3.54982354e-02, 3.19936983e-02,
          2.82707453e-01, 3.17045599e-01, 3.40303890e-02, 0., 0.,
          5.91001093e-01, 5.91001093e-01, 3.68878692e-01, 7.42466599e-02,
          2.28635490e-01 ]
      - [ 5.62674046e-01, 5.62674046e-01, 9.78722051e-02, 0.,
          1.87071875e-01, 0., 0., 0., 5.62674046e-01, 4.91429657e-01,
          4.91429657e-01, 0., 0., 3.30276430e-01, 3.63960683e-01,
          5.18808514e-02, 1.62298545e-01, 4.91429657e-01, 4.24947560e-01,
          4.24947560e-01, 3.78252044e-02, 2.65355289e-01, 4.24947560e-01,
          4.24947560e-01, 4.93588373e-02, 1.36280760e-01, 4.24947560e-01,
          4.73241001e-01, 3.01184595e-01, 1.37680128e-01, 1.85569718e-01,
          4.73241001e-01, 3.47561091e-01, 2.07102403e-01, 1.24932043e-01,
          4.73241001e-01, 3.65566671e-01, 3.65566671e-01, 3.65566671e-01,
          3.65566671e-01, 3.32451880e-01, 3.65566671e-01, 3.65566671e-01,
          1.27285182e-01, 2.60361373e-01, 4.95805085e-01, 1.94844455e-01,
          0., 0., 4.95805085e-01, 4.95805085e-01, 2.13067174e-01,
          5.50618879e-02, 4.13746655e-01, 3.37394863e-01, 2.43185222e-01,
          7.18273968e-02, 5.03890932e-01, 5.05848467e-01, 5.05848467e-01,
          1.61801010e-01, 6.81628138e-02, 1.42538279e-01, 1.51142836e-01,
          4.61989492e-01, 4.61989492e-01, 3.14336270e-01, 4.61989492e-01,
          4.61989492e-01, 8.35521743e-02, 2.57141273e-02, 1.11151069e-01,
          7.74333030e-02, 4.94003773e-01, 4.94003773e-01, 2.96704955e-02,
          5.67062758e-03, 1.09538607e-01, 4.94003773e-01, 4.94003773e-01,
          0., 0., 0., 0., 0., 5.37443936e-01, 3.57903600e-01,
          5.37443936e-01, 5.37443936e-01, 0., 5.68466961e-01,
          5.68466961e-01, 0., 0., 1.57668352e-01, 0., 0., 0.,
          5.68466961e-01, 4.75369692e-01, 4.75369692e-01, 4.75369692e-01,
          2.84927338e-01, 1.00811094e-01, 0., 0., 0., 4.75369692e-01,
          3.64291191e-01, 3.64291191e-01, 3.64291191e-01, 3.64291191e-01,
          3.34681422e-02, 3.64291191e-01, 3.64291191e-01, 3.64291191e-01,
          2.57456362e-01, 4.63365704e-01, 2.06346467e-01, 7.68613666e-02,
          0., 4.63365704e-01, 1.80698544e-01, 3.99539292e-01,
          3.32382768e-01, 4.63365704e-01, 4.01251167e-01, 4.01251167e-01,
          3.36872786e-01, 4.00233209e-01, 4.01251167e-01, 1.48748577e-01,
          1.35068849e-01, 1.94786340e-01, 4.01251167e-01, 4.38736022e-01,
          3.97017181e-01, 2.44709119e-01, 7.57534802e-02, 4.38736022e-01,
          4.38736022e-01, 4.91599813e-02, 0., 4.38736022e-01 ]
      - [ 3.90415907e-01, 3.90415907e-01, 3.90415907e-01, 3.90415907e-01,
          3.90415907e-01, 0., 1.92150891e-01, 2.11258546e-01,
          3.90415907e-01, 4.63728964e-01, 6.57093152e-02, 5.82428910e-02,
          1.59739062e-01, 4.63728964e-01, 3.62691164e-01, 2.75456727e-01,
          3.31038654e-01, 4.63728964e-01, 4.43822116e-01, 1.89838499e-01,
          2.16939569e-01, 4.43822116e-01, 4.43822116e-01, 2.60412276e-01,
          1.90000877e-01, 1.43660158e-01, 4.43822116e-01, 3.78592283e-01,
          6.26855120e-02, 3.33760172e-01, 2.58101404e-01, 3.78592283e-01,
          3.78592283e-01, 3.78592283e-01, 3.12434584e-01, 3.78592283e-01,
          9.10927802e-02, 4.83924627e-01, 4.83924627e-01, 3.28216515e-02,
          1.95971265e-01, 0., 4.83924627e-01, 4.83924627e-01,
          1.03221752e-01, 0., 0., 5.53158019e-03, 3.88057157e-02,
          5.67908764e-01, 1.52367070e-01, 5.67908764e-01, 5.67908764e-01,
          4.48964462e-02, 0., 0., 6.50274381e-02, 6.80365562e-01,
          6.80365562e-01, 2.08887190e-01, 1.34043351e-01, 3.97893749e-02,
          0., 6.52442425e-02, 5.00052571e-01, 5.00052571e-01,
          1.29549310e-01, 3.17430466e-01, 9.84979346e-02, 5.00052571e-01,
          3.30283850e-01, 6.52442425e-02, 7.19352886e-02, 4.78730708e-01,
          4.79776353e-01, 1.73521623e-01, 1.22788567e-02, 1.96625799e-01,
          4.79776353e-01, 4.79776353e-01, 3.70400213e-02, 4.81597096e-01,
          2.48787016e-01, 0., 0., 0., 7.45104253e-02, 4.81597096e-01,
          4.81597096e-01, 4.81597096e-01, 5.68100691e-01, 5.68100691e-01,
          0., 0., 0., 0., 0., 1.61591962e-01, 5.68100691e-01,
          3.94975692e-01, 3.94975692e-01, 3.94975692e-01, 0.,
          3.41044396e-01, 0., 3.94975692e-01, 3.15775216e-01,
          3.94975692e-01, 3.60814244e-01, 3.24532807e-01, 3.60814244e-01,
          3.60814244e-01, 3.56275856e-01, 3.60814244e-01, 3.22669864e-01,
          9.53449383e-02, 3.60814244e-01, 4.93446082e-01, 2.82063395e-01,
          2.48170327e-02, 1.97607335e-02, 4.93446082e-01, 3.34788114e-01,
          7.41790459e-02, 2.57784635e-01, 4.93446082e-01, 4.78020191e-01,
          4.78020191e-01, 0., 0., 4.78020191e-01, 2.50514001e-01, 0.,
          1.35849357e-01, 4.78020191e-01, 4.33528990e-01, 5.69352396e-02,
          9.52508673e-02, 0., 4.33528990e-01, 4.33528990e-01,
          3.45840901e-01, 3.34603608e-01, 4.33528990e-01 ]
      - [ 4.92120892e-01, 4.92120892e-01, 3.88260365e-01, 1.96309909e-01,
          1.98153213e-01, 2.76860148e-01, 8.06611627e-02, 0.,
          4.46108282e-01, 4.38500941e-01, 4.38500941e-01, 1.17050316e-02,
          6.83875475e-03, 4.38500941e-01, 4.38500941e-01, 1.84447065e-01,
          0., 4.38500941e-01, 4.66369599e-01, 4.66369599e-01,
          6.88631013e-02, 0., 4.66369599e-01, 4.66369599e-01,
          1.63840249e-01, 0., 3.06192160e-01, 3.23237896e-01,
          3.37505609e-01, 3.55626076e-01, 3.55626076e-01, 3.55626076e-01,
          3.55626076e-01, 3.55626076e-01, 2.30883628e-01, 3.03969234e-01,
          3.70994896e-01, 3.70994896e-01, 3.70994896e-01, 3.70994896e-01,
          3.70994896e-01, 3.70994896e-01, 3.70994896e-01, 1.61846772e-01,
          8.14771801e-02, 3.97602081e-01, 1.70102239e-01, 3.43830474e-02,
          6.71735555e-02, 5.05318582e-01, 5.05318582e-01, 5.05318582e-01,
          1.38958275e-01, 1.29948422e-01, 4.63926703e-01, 3.19448739e-01,
          3.93264294e-02, 0., 4.63926703e-01, 4.63926703e-01,
          1.75670609e-01, 0., 4.63926703e-01, 4.58424419e-01,
          4.58424419e-01, 4.58424419e-01, 0., 4.18606736e-02,
          1.27516091e-01, 4.58424419e-01, 3.01748991e-01, 2.13878885e-01,
          2.10701138e-01, 4.80514020e-01, 4.80514020e-01, 0.,
          2.13269684e-02, 7.94703737e-02, 4.80514020e-01, 4.80514020e-01,
          1.43040076e-01, 4.46464986e-01, 4.46464986e-01, 1.35401726e-01,
          0., 1.00773469e-01, 2.24979371e-01, 4.46464986e-01,
          3.45125705e-01, 4.46464986e-01, 4.32438672e-01, 4.32438672e-01,
          2.49567956e-01, 0., 4.32438672e-01, 4.32438672e-01,
          1.00346327e-01, 0., 4.18705136e-01, 4.18373585e-01,
          4.18373585e-01, 8.90933797e-02, 0., 4.18373585e-01,
          4.18373585e-01, 4.18373585e-01, 6.71128407e-02, 3.28932494e-01,
          3.67436707e-01, 3.67436707e-01, 3.67436707e-01, 3.67436707e-01,
          3.67436707e-01, 3.67436707e-01, 2.23191485e-01, 3.80338244e-02,
          3.67436707e-01, 4.37008381e-01, 4.37008381e-01, 3.41824479e-02,
          2.69842930e-02, 4.37008381e-01, 4.37008381e-01, 1.96542680e-01,
          1.50809698e-02, 4.37008381e-01, 3.79138023e-01, 3.70666027e-01,
          6.87052757e-02, 0., 5.61784267e-01, 5.61784267e-01,
          2.11650506e-01, 0., 1.80365473e-01, 1.17307477e-01,
          6.62749559e-02, 1.45880524e-02, 0., 6.53726578e-01,
          6.53726578e-01, 3.43985111e-01, 0., 4.54380661e-02 ]
      - [ 4.77777302e-01, 4.77777302e-01, 2.47353643e-01, 0.,
          4.77777302e-01, 1.18584983e-01, 8.03144276e-02, 2.11369041e-02,
          4.77777302e-01, 4.03287977e-01, 2.03087419e-01, 2.92049855e-01,
          1.00314498e-01, 4.03287977e-01, 4.03287977e-01, 2.14859337e-01,
          4.03287977e-01, 4.03287977e-01, 3.68491769e-01, 3.68491769e-01,
          3.68491769e-01, 3.68491769e-01, 3.68491769e-01, 3.68491769e-01,
          4.81076688e-02, 2.08568662e-01, 3.68491769e-01, 3.99295151e-01,
          1.02075607e-01, 3.07110280e-01, 2.32522920e-01, 3.99295151e-01,
          2.00062007e-01, 3.99295151e-01, 3.99295151e-01, 3.99295151e-01,
          5.22587113e-02, 3.59480500e-01, 4.18748379e-01, 0.,
          4.18748379e-01, 4.03026223e-01, 4.18748379e-01, 4.18748379e-01,
          5.36738802e-03, 1.30792847e-02, 2.61877980e-02, 9.96563062e-02,
          1.42915308e-01, 6.20944202e-01, 6.20944202e-01, 4.22697246e-01,
          1.09568879e-01, 2.76668016e-02, 3.36826983e-04, 1.84614137e-01,
          4.88792568e-01, 4.88792568e-01, 4.88792568e-01, 4.88792568e-01,
          7.06997141e-02, 1.85706913e-02, 4.42339526e-03, 0.,
          4.72109079e-01, 4.72109079e-01, 2.12355897e-01, 2.10730076e-01,
          1.82710364e-01, 4.72109079e-01, 4.51226294e-01, 1.15384273e-02,
          2.57980794e-01, 4.05387819e-01, 4.79699582e-01, 2.54033972e-02,
          0., 0., 4.79699582e-01, 4.79699582e-01, 2.70804435e-01,
          4.63960975e-01, 4.63960975e-01, 0., 0., 0., 0., 3.66505951e-01,
          4.63960975e-01, 4.63960975e-01, 5.59674025e-01, 5.59674025e-01,
          2.26584941e-01, 0., 0., 0., 2.71246936e-02, 5.12801409e-02,
          5.59674025e-01, 4.16894495e-01, 4.16894495e-01, 4.16894495e-01,
          0., 0., 3.87171417e-01, 4.16894495e-01, 3.71334940e-01,
          1.13313615e-01, 3.59695882e-01, 2.66261965e-01, 3.59695882e-01,
          3.59695882e-01, 3.59695882e-01, 1.75960258e-01, 3.59695882e-01,
          3.43892664e-01, 3.59695882e-01, 3.57183248e-01, 3.57183248e-01,
          1.75968677e-01, 2.69086301e-01, 3.57183248e-01, 3.57183248e-01,
          3.57183248e-01, 3.57183248e-01, 3.57183248e-01, 3.94092470e-01,
          3.94092470e-01, 2.83758938e-01, 3.55110765e-01, 3.94092470e-01,
          3.94092470e-01, 8.36511478e-02, 7.68009648e-02, 3.94092470e-01,
          3.59221667e-01, 1.68050408e-01, 9.43389162e-02, 0.,
          4.82490033e-01, 4.82490033e-01, 4.82490033e-01, 2.78051466e-01,
          2.30862230e-01 ]
      - [ 4.60064411e-01, 4.60064411e-01, 4.55763459e-01, 0.,
          3.69623870e-01, 9.09722745e-02, 8.50391462e-02, 2.40238253e-02,
          4.60064411e-01, 4.74344343e-01, 6.16242141e-02, 8.13261867e-02,
          0., 4.74344343e-01, 4.57294732e-01, 1.87799811e-01,
          2.55842924e-01, 4.74344343e-01, 3.60283166e-01, 3.60283166e-01,
          3.60283166e-01, 3.60283166e-01, 3.60283166e-01, 3.60283166e-01,
          1.34484634e-01, 2.63982177e-01, 3.60283166e-01, 4.35004950e-01,
          1.12915583e-01, 2.78220236e-01, 3.30059350e-01, 4.35004950e-01,
          1.78582534e-01, 8.80342722e-02, 4.35004950e-01, 4.35004950e-01,
          1.87360778e-01, 4.18027401e-01, 4.18027401e-01, 0.,
          4.18027401e-01, 2.94494331e-01, 4.18027401e-01, 4.18027401e-01,
          1.60795357e-02, 7.19168410e-02, 7.74786249e-03, 1.16123930e-02,
          0., 5.64243734e-01, 5.64243734e-01, 5.64243734e-01,
          1.70202464e-01, 7.01191053e-02, 1.72212601e-01, 4.59347442e-02,
          2.95504481e-01, 5.06343782e-01, 5.06343782e-01, 5.06343782e-01,
          2.67830938e-01, 7.28707463e-02, 1.72212601e-01, 1.25776932e-01,
          4.70285565e-01, 4.70285565e-01, 3.40064108e-01, 4.70285565e-01,
          2.00124264e-01, 3.65978301e-01, 1.36207461e-01, 8.82692263e-02,
          3.79780948e-01, 3.61005157e-01, 3.79780948e-01, 3.78253043e-01,
          4.04718779e-02, 0., 3.79780948e-01, 3.79780948e-01,
          3.79780948e-01, 4.82286304e-01, 1.23501755e-01, 3.70449712e-03,
          2.59881709e-02, 2.07653403e-01, 7.56361485e-02, 4.82286304e-01,
          4.82286304e-01, 4.82286304e-01, 5.30478656e-01, 5.30478656e-01,
          1.75647419e-02, 1.42911226e-01, 2.43519753e-01, 4.44749296e-02,
          2.07697213e-01, 1.59151912e-01, 5.30478656e-01, 3.91916841e-01,
          3.91916841e-01, 3.91916841e-01, 1.19304634e-03, 2.52555877e-01,
          3.91916841e-01, 3.91916841e-01, 1.03468657e-01, 3.91916841e-01,
          9.90124643e-02, 1.35217860e-01, 4.87634093e-01, 4.87634093e-01,
          4.87634093e-01, 4.87634093e-01, 3.12194023e-02, 3.85356769e-02,
          1.15907215e-01, 2.52018601e-01, 7.71147683e-02, 2.12947745e-02,
          1.62580818e-01, 5.68987727e-01, 5.68987727e-01, 3.72563988e-01,
          1.73948854e-01, 2.85334945e-01, 2.37507239e-01, 4.75953698e-01,
          6.82735592e-02, 5.55491030e-01, 5.60721457e-01, 2.06982344e-01,
          1.83873117e-01, 7.35377595e-02, 4.19527292e-02, 8.61834511e-02,
          2.46649776e-02, 0., 8.68286006e-03, 6.65334344e-01,
          6.65334344e-01, 3.08496177e-01, 1.14015825e-02, 6.78748786e-02 ]
      - [ 5.42162716e-01, 5.42162716e-01, 2.79355645e-01, 0.,
          1.86346039e-01, 0., 0., 0., 5.42162716e-01, 5.48401892e-01,
          1.64059132e-01, 9.36339051e-02, 2.73319632e-02, 2.86325246e-01,
          1.69230774e-01, 4.29434538e-01, 2.48131603e-01, 5.48401892e-01,
          4.40713853e-01, 4.40713853e-01, 4.40713853e-01, 2.92856246e-01,
          2.04318777e-01, 1.18210748e-01, 2.62678057e-01, 9.05460194e-02,
          4.40713853e-01, 4.88887548e-01, 5.69455102e-02, 9.05340239e-02,
          1.31601915e-01, 4.73870248e-01, 1.50781021e-01, 4.51424234e-02,
          4.88887548e-01, 4.88887548e-01, 3.89015764e-01, 3.89015764e-01,
          3.89015764e-01, 0., 3.89015764e-01, 3.89015764e-01,
          3.89015764e-01, 2.57253885e-01, 1.48103178e-01, 2.27328420e-01,
          1.68554019e-02, 9.41152722e-02, 2.59660445e-02, 5.27926266e-01,
          5.27926266e-01, 5.27926266e-01, 1.37437895e-01, 2.79689163e-01,
          7.71400928e-02, 1.59048244e-01, 4.40737545e-01, 4.40737545e-01,
          4.40737545e-01, 4.40737545e-01, 4.18747813e-01, 8.30529332e-02,
          7.14478940e-02, 6.97579607e-02, 4.13184494e-01, 4.13184494e-01,
          4.13184494e-01, 4.13184494e-01, 4.13184494e-01, 3.07036012e-01,
          1.75247729e-01, 1.11427233e-01, 2.86257386e-01, 2.94412553e-01,
          4.06605333e-01, 1.65910646e-02, 2.00313684e-02, 4.06605333e-01,
          4.06605333e-01, 4.06605333e-01, 4.06605333e-01, 5.37993431e-01,
          9.62935537e-02, 1.49660110e-02, 0., 2.35406250e-01,
          1.46271750e-01, 2.87824750e-01, 4.96590734e-01, 5.37993431e-01,
          6.01134241e-01, 4.85707313e-01, 6.43745139e-02, 0.,
          1.35756284e-01, 0., 1.73668526e-02, 1.11740798e-01,
          6.01134241e-01, 4.31497335e-01, 4.31497335e-01, 4.31497335e-01,
          0., 1.04906105e-01, 3.05316210e-01, 4.31497335e-01,
          1.58074826e-01, 3.48882496e-01, 3.05964708e-01, 1.15804903e-01,
          4.41534489e-01, 4.41534489e-01, 4.41534489e-01, 2.65580475e-01,
          1.31701306e-01, 1.44483149e-01, 4.41534489e-01, 4.51776236e-01,
          8.56017023e-02, 4.55157943e-02, 1.35664627e-01, 4.51776236e-01,
          4.51776236e-01, 1.80860013e-01, 3.44333827e-01, 4.51776236e-01,
          4.48467553e-01, 4.36850011e-01, 2.90402919e-01, 4.44295317e-01,
          4.48467553e-01, 2.11000890e-01, 5.21291569e-02, 9.80394483e-02,
          2.52692461e-01, 4.03180927e-01, 3.04181427e-01, 1.62204176e-01,
          0., 4.03180927e-01, 4.03180927e-01, 4.03180927e-01,
          2.53695369e-01, 4.03180927e-01 ]
      - [ 5.25680184e-01, 5.25680184e-01, 3.99517536e-01, 0.,
          5.45934327e-02, 5.60047366e-02, 0., 0., 5.25680184e-01,
          5.27828634e-01, 2.08466977e-01, 3.28370705e-02, 0.,
          5.01847088e-01, 3.56577247e-01, 3.65113430e-02, 1.12493828e-01,
          5.27828634e-01, 3.85862619e-01, 3.85862619e-01, 2.92684555e-01,
          3.85862619e-01, 3.85862619e-01, 3.85862619e-01, 6.61459342e-02,
          1.12985551e-01, 3.85862619e-01, 4.63562578e-01, 5.98582551e-02,
          1.20070204e-01, 3.13944727e-01, 4.63562578e-01, 1.37348935e-01,
          1.95610672e-02, 4.63562578e-01, 4.63562578e-01, 2.63307691e-01,
          4.54141438e-01, 4.54141438e-01, 0., 1.66334271e-01,
          4.46247458e-01, 4.54141438e-01, 2.83641696e-01, 1.19586280e-02,
          9.17864889e-02, 2.65006926e-02, 1.29499482e-02, 0.,
          5.58631241e-01, 5.58631241e-01, 5.58631241e-01, 2.00273275e-01,
          9.38664973e-02, 4.33434844e-02, 3.05088814e-02, 1.79478869e-01,
          5.56468606e-01, 5.56468606e-01, 5.56468606e-01, 1.56998321e-01,
          2.19925009e-02, 7.29179084e-02, 1.68242436e-02, 4.91456509e-01,
          4.91456509e-01, 4.91456509e-01, 4.91456509e-01, 1.67310327e-01,
          1.63719943e-03, 2.02963520e-02, 1.68242436e-02, 8.13896954e-02,
          4.77185160e-01, 4.77185160e-01, 2.23307148e-01, 3.45453853e-03,
          1.94511861e-02, 4.77185160e-01, 4.77185160e-01, 1.65923223e-01,
          4.96939480e-01, 1.96903385e-03, 5.90710156e-03, 0.,
          7.61447549e-02, 3.74780297e-02, 4.96939480e-01, 4.96939480e-01,
          4.96939480e-01, 5.26497781e-01, 5.26497781e-01, 7.01878732e-03,
          0., 1.13374693e-02, 0., 4.25736457e-02, 4.01437670e-01,
          5.26497781e-01, 4.96964276e-01, 4.96964276e-01, 4.96964276e-01,
          0., 7.22834766e-02, 2.20010616e-02, 3.77692282e-02,
          2.68213404e-03, 4.96964276e-01, 1.00060157e-01, 2.51940429e-01,
          5.38112462e-01, 5.38112462e-01, 5.38112462e-01, 0.,
          1.30971119e-01, 9.79343653e-02, 1.60314023e-01, 4.93551463e-01,
          6.38616830e-03, 5.38113341e-02, 1.16752587e-01, 4.93551463e-01,
          2.31675208e-01, 3.37001503e-01, 2.83690542e-01, 4.93551463e-01,
          3.75766486e-01, 3.75766486e-01, 5.13984486e-02, 3.75766486e-01,
          3.75766486e-01, 3.75766486e-01, 3.75766486e-01, 2.99425513e-01,
          2.38213688e-01, 5.09919405e-01, 3.10554087e-01, 1.47009104e-01,
          8.48488733e-02, 5.09919405e-01, 5.09919405e-01, 2.00726286e-01,
          5.74426427e-02, 2.14495316e-01 ]
      - [ 5.71022689e-01, 5.71022689e-01, 1.25673056e-01, 0.,
          1.74297504e-02, 0., 0., 0., 5.71022689e-01, 5.02923727e-01,
          5.02923727e-01, 2.28118852e-01, 3.66713963e-02, 2.53736615e-01,
          1.69605762e-01, 6.89418763e-02, 2.91369021e-01, 5.02923727e-01,
          4.95229781e-01, 4.00530517e-01, 2.67037392e-01, 9.97189805e-02,
          4.95229781e-01, 1.11489587e-01, 3.62711772e-02, 6.22351691e-02,
          4.95229781e-01, 4.32867855e-01, 1.21027522e-01, 7.00789392e-02,
          3.50587815e-02, 4.32867855e-01, 4.32867855e-01, 4.32867855e-01,
          1.94974720e-01, 4.32867855e-01, 4.03039783e-01, 4.03039783e-01,
          4.03039783e-01, 3.48858267e-01, 4.03039783e-01, 1.49215430e-01,
          1.90499082e-01, 5.92542142e-02, 4.03039783e-01, 4.63107169e-01,
          2.27514923e-01, 5.25519252e-02, 1.95357408e-02, 4.63107169e-01,
          4.63107169e-01, 2.21494600e-01, 1.83126032e-01, 4.63107169e-01,
          4.40117598e-01, 1.37105837e-01, 2.40919545e-01, 1.37126684e-01,
          5.81005096e-01, 4.88957644e-01, 1.91204652e-01, 1.26823783e-01,
          2.74883747e-01, 3.41786206e-01, 3.07519704e-01, 3.92468303e-01,
          1.58722118e-01, 3.92468303e-01, 3.92468303e-01, 3.92468303e-01,
          2.25651920e-01, 3.04065675e-01, 1.24458402e-01, 3.88366640e-01,
          4.15760726e-01, 3.64592820e-02, 3.47333491e-01, 1.27006248e-01,
          4.15760726e-01, 4.15760726e-01, 4.15760726e-01, 4.06050593e-01,
          8.17377046e-02, 0., 0., 4.06050593e-01, 4.06050593e-01,
          4.06050593e-01, 4.06050593e-01, 4.06050593e-01, 5.73202550e-01,
          5.73202550e-01, 0., 0., 9.09013897e-02, 1.81578975e-02, 0., 0.,
          5.73202550e-01, 4.45458800e-01, 4.45458800e-01, 4.45458800e-01,
          0., 0., 1.20378576e-01, 4.45458800e-01, 3.13857645e-01,
          2.98024505e-01, 3.55879664e-01, 3.55879664e-01, 3.55879664e-01,
          1.11385986e-01, 3.55879664e-01, 3.55879664e-01, 3.55879664e-01,
          3.41702551e-01, 3.27680796e-01, 4.13752764e-01, 4.13752764e-01,
          0., 0., 4.13752764e-01, 4.13752764e-01, 1.81796461e-01,
          3.26894760e-01, 4.13752764e-01, 4.44375426e-01, 4.44375426e-01,
          0., 0., 4.44375426e-01, 4.44375426e-01, 4.89358976e-02,
          7.62811303e-02, 4.44375426e-01, 3.57597947e-01, 3.18289012e-01,
          3.57597947e-01, 2.23394305e-01, 3.57597947e-01, 3.57597947e-01,
          3.57597947e-01, 2.79207021e-01, 3.57597947e-01 ]
      - [ 4.67413247e-01, 4.67413247e-01, 2.99692810e-01, 0.,
          4.67413247e-01, 1.77538499e-01, 9.75277461e-03, 0.,
          4.67413247e-01, 4.44392741e-01, 4.44392741e-01, 0., 0.,
          4.44392741e-01, 4.44392741e-01, 9.02025178e-02, 0.,
          4.44392741e-01, 4.37192410e-01, 3.98574173e-01, 1.25362128e-01,
          9.78907645e-02, 4.37192410e-01, 4.37192410e-01, 1.09840393e-01,
          1.86706856e-01, 4.37192410e-01, 3.96111220e-01, 5.62713929e-02,
          2.67663479e-01, 2.09008783e-01, 3.05004060e-01, 3.96111220e-01,
          3.96111220e-01, 3.96111220e-01, 3.96111220e-01, 3.74780625e-01,
          3.88660371e-01, 3.88660371e-01, 0., 3.88660371e-01,
          1.27756312e-01, 3.88660371e-01, 3.88660371e-01, 2.89914727e-01,
          2.88565606e-01, 9.83106792e-02, 0., 0., 5.22058666e-01,
          5.22058666e-01, 5.22058666e-01, 2.41997585e-01, 1.60164148e-01,
          7.18474463e-02, 4.92220700e-01, 4.92220700e-01, 1.19019434e-01,
          4.92220700e-01, 4.92220700e-01, 4.08198163e-02, 1.14426157e-02,
          6.95274696e-02, 7.61978999e-02, 3.63414437e-01, 5.25906265e-01,
          7.44135156e-02, 8.47268626e-02, 4.36586104e-02, 5.25906265e-01,
          5.25906265e-01, 1.11881919e-01, 1.33862153e-01, 4.79121655e-01,
          4.79121655e-01, 1.94937155e-01, 1.28896507e-02, 0.,
          4.79121655e-01, 4.79121655e-01, 1.44563973e-01, 4.19545501e-01,
          4.19545501e-01, 5.87645825e-03, 0., 3.28986079e-01,
          8.63159150e-02, 4.19545501e-01, 4.19545501e-01, 4.19545501e-01,
          4.31046098e-01, 4.31046098e-01, 2.77122825e-01, 5.02400100e-02,
          4.31046098e-01, 3.87432098e-01, 5.06033227e-02, 1.43198490e-01,
          4.31046098e-01, 3.57774585e-01, 3.09955865e-01, 3.57774585e-01,
          6.58354536e-02, 3.57774585e-01, 3.57774585e-01, 3.57774585e-01,
          3.57774585e-01, 3.57774585e-01, 3.08573186e-01, 2.41039649e-01,
          3.92542332e-01, 3.92542332e-01, 3.92542332e-01, 3.30372900e-01,
          3.30557287e-01, 2.42728472e-01, 3.21186721e-01, 4.47661459e-01,
          3.77053797e-01, 1.88275855e-02, 3.80480550e-02, 4.47661459e-01,
          4.47661459e-01, 1.42366305e-01, 2.22105801e-01, 4.25153047e-01,
          3.99454087e-01, 3.70354652e-01, 3.19804490e-01, 2.36142471e-01,
          4.68174785e-01, 4.68174785e-01, 9.22422931e-02, 9.67565477e-02,
          2.90368140e-01, 2.62437671e-01, 1.48644403e-01, 3.71303886e-01,
          3.25835913e-01, 3.71303886e-01, 3.44561845e-01, 3.71303886e-01,
          3.71303886e-01, 3.59114945e-01 ]
      - [ 4.73543793e-01, 4.73543793e-01, 2.63422459e-01, 5.65796681e-02,
          4.73543793e-01, 1.60063073e-01, 9.07740742e-03, 0.,
          4.73543793e-01, 4.25350249e-01, 3.48606378e-01, 1.32148758e-01,
          1.00025229e-01, 4.25350249e-01, 4.25350249e-01, 1.71880707e-01,
          3.05813551e-01, 4.25350249e-01, 3.90347689e-01, 3.90347689e-01,
          2.44906694e-01, 3.77424479e-01, 3.90347689e-01, 3.90347689e-01,
          1.42402098e-01, 1.07410073e-01, 3.90347689e-01, 3.52929503e-01,
          3.52929503e-01, 3.52929503e-01, 0., 3.52929503e-01,
          3.52929503e-01, 3.52929503e-01, 3.52929503e-01, 3.52929503e-01,
          3.29208285e-01, 3.93708080e-01, 3.93708080e-01, 4.58243713e-02,
          3.93708080e-01, 1.29636496e-01, 3.93708080e-01, 3.93708080e-01,
          3.06190997e-01, 1.45637974e-01, 5.96210733e-02, 2.65175640e-03,
          2.72912029e-02, 5.33077955e-01, 5.33077955e-01, 5.33077955e-01,
          2.91281879e-01, 1.78319916e-01, 7.14881578e-03, 4.27734107e-01,
          5.31089425e-01, 1.92334205e-01, 5.31089425e-01, 3.76275837e-01,
          2.39032656e-01, 1.04881220e-01, 2.93944534e-02, 3.60725671e-02,
          5.09099722e-01, 5.09099722e-01, 8.75196084e-02, 7.81600326e-02,
          1.15474641e-01, 5.09099722e-01, 4.34396446e-01, 1.62255019e-02,
          5.22052981e-02, 4.53866422e-01, 5.09223104e-01, 6.12963103e-02,
          0., 3.00334450e-02, 5.09223104e-01, 5.09223104e-01,
          6.00874759e-02, 4.46109146e-01, 4.46109146e-01, 1.97700355e-02,
          0., 0., 9.27613396e-03, 4.46109146e-01, 4.46109146e-01,
          4.46109146e-01, 5.23355901e-01, 5.23355901e-01, 2.13974983e-01,
          0., 3.31952274e-01, 1.26440376e-01, 6.81292545e-03,
          3.25257927e-02, 5.23355901e-01, 3.63711655e-01, 3.55480492e-01,
          3.63711655e-01, 3.63711655e-01, 1.54478103e-01, 3.63711655e-01,
          3.63711655e-01, 2.28952870e-01, 3.63711655e-01, 3.59103769e-01,
          3.59103769e-01, 3.59103769e-01, 3.59103769e-01, 2.51006126e-01,
          3.59103769e-01, 3.59103769e-01, 3.30601007e-01, 2.24450409e-01,
          4.15825665e-01, 4.15825665e-01, 3.52451093e-02, 1.73122641e-02,
          4.15825665e-01, 4.15825665e-01, 1.58898935e-01, 3.23265016e-01,
          4.15825665e-01, 4.79124546e-01, 4.79124546e-01, 1.31589592e-01,
          0., 4.79124546e-01, 4.79124546e-01, 9.31600556e-02,
          7.64267296e-02, 2.12455973e-01, 3.38095397e-01, 3.38095397e-01,
          3.38095397e-01, 3.12018186e-01, 3.38095397e-01, 3.38095397e-01,
          3.38095397e-01, 3.14812720e-01, 3.38095397e-01 ]
      - [ 4.21680301e-01, 4.21680301e-01, 3.91782701e-01, 2.81097829e-01,
          4.21680301e-01, 0., 2.06609443e-01, 9.66095328e-02,
          4.21680301e-01, 4.90516484e-01, 1.36795091e-02, 1.32659851e-02,
          1.03212744e-01, 4.90516484e-01, 4.90516484e-01, 6.71222135e-02,
          1.30972296e-01, 4.90516484e-01, 4.62414801e-01, 1.71630606e-02,
          6.38052225e-02, 4.62414801e-01, 4.62414801e-01, 3.67183983e-01,
          1.72132310e-02, 2.41922885e-02, 4.62414801e-01, 4.79018658e-01,
          1.78292423e-01, 2.11861357e-01, 3.28800902e-02, 4.79018658e-01,
          3.54394913e-02, 1.42778099e-01, 4.55459088e-01, 4.79018658e-01,
          2.04420090e-03, 3.37216944e-01, 4.63366121e-01, 1.29631981e-01,
          4.11157221e-01, 0., 4.63366121e-01, 4.63366121e-01,
          2.27317482e-01, 0., 0., 7.97689706e-03, 5.59603572e-02,
          6.33017004e-01, 3.37825865e-01, 6.33017004e-01, 2.73746997e-01,
          0., 0., 0., 4.95299213e-02, 6.74311817e-01, 6.74311817e-01,
          2.85032928e-01, 1.33620705e-02, 0., 0., 1.00594364e-01,
          4.92825240e-01, 4.92825240e-01, 3.50557603e-02, 4.23951983e-01,
          3.70478327e-03, 4.92825240e-01, 2.67991632e-01, 5.94225526e-02,
          4.06037480e-01, 2.54237682e-01, 4.06037480e-01, 1.38121963e-01,
          3.08438301e-01, 0., 4.06037480e-01, 4.06037480e-01,
          3.97025645e-01, 5.30244589e-01, 5.44976592e-02, 0., 0., 0., 0.,
          4.40443337e-01, 4.85206753e-01, 5.30244589e-01, 5.52991390e-01,
          5.52991390e-01, 0., 0., 0., 0., 0., 2.77631402e-01,
          5.52991390e-01, 4.10898417e-01, 3.92997026e-01, 4.10898417e-01,
          4.10898417e-01, 6.02035150e-02, 1.20273724e-01, 3.52622300e-01,
          1.53836891e-01, 4.10898417e-01, 3.97109747e-01, 3.97109747e-01,
          3.97109747e-01, 3.97109747e-01, 3.97109747e-01, 1.87366202e-01,
          1.19624123e-01, 2.09738277e-02, 3.97109747e-01, 4.92408663e-01,
          5.62078245e-02, 0., 2.16272548e-02, 4.92408663e-01,
          3.75050813e-01, 1.04212910e-02, 3.51118594e-01, 4.92408663e-01,
          4.86997664e-01, 4.86997664e-01, 0., 0., 4.86997664e-01, 0., 0.,
          2.15566576e-01, 4.86997664e-01, 5.32535374e-01, 1.88742280e-01,
          1.82456642e-01, 4.16574292e-02, 5.32535374e-01, 2.31203884e-01,
          4.57967035e-02, 1.33034080e-01, 5.32535374e-01 ]
      - [ 4.65258092e-01, 4.65258092e-01, 4.78142612e-02, 0.,
          4.65258092e-01, 3.53666186e-01, 4.48513255e-02, 1.07175522e-02,
          4.65258092e-01, 3.80528510e-01, 3.70336741e-01, 7.56838918e-02,
          2.17434213e-01, 3.80528510e-01, 3.80528510e-01, 3.80528510e-01,
          2.86415219e-01, 3.80528510e-01, 4.72350597e-01, 4.72350597e-01,
          1.12485193e-01, 2.69344896e-01, 4.72350597e-01, 1.96358889e-01,
          6.71908781e-02, 3.38429585e-02, 4.43306357e-01, 3.49410057e-01,
          3.49410057e-01, 3.49410057e-01, 1.40747145e-01, 3.49410057e-01,
          3.49410057e-01, 3.49410057e-01, 3.49410057e-01, 3.49410057e-01,
          1.76958546e-01, 1.74976870e-01, 3.24499428e-01, 0.,
          4.52785641e-01, 4.52785641e-01, 4.52785641e-01, 4.52785641e-01,
          9.04806331e-02, 1.11101434e-01, 2.90191267e-03, 9.75822657e-03,
          6.84569106e-02, 6.47184551e-01, 6.47184551e-01, 3.28870088e-01,
          1.41699120e-01, 1.02348998e-01, 0., 4.32187170e-01,
          6.02498472e-01, 1.85163304e-01, 6.02498472e-01, 1.79483980e-01,
          1.13737866e-01, 4.18719687e-02, 0., 0., 5.11048973e-01,
          5.11048973e-01, 4.35384847e-02, 9.62764695e-02, 3.18615399e-02,
          5.11048973e-01, 4.46321785e-01, 0., 1.58089131e-01,
          1.63653314e-01, 4.70113188e-01, 0., 0., 0., 5.92662036e-01,
          5.92662036e-01, 1.37130558e-01, 5.68022788e-01, 5.68022788e-01,
          1.62413806e-01, 0., 0., 0., 0., 0., 5.68022788e-01,
          5.24867415e-01, 5.24867415e-01, 4.10158575e-01, 0.,
          8.41926783e-03, 0., 0., 0., 5.24867415e-01, 3.76934320e-01,
          3.76934320e-01, 3.76934320e-01, 2.86412030e-01, 8.33281279e-02,
          2.84945041e-01, 3.76934320e-01, 3.76934320e-01, 3.40099722e-01,
          3.96028250e-01, 3.15650254e-01, 3.01707655e-01, 1.00456543e-01,
          3.96028250e-01, 1.05345137e-01, 3.96028250e-01, 3.96028250e-01,
          3.96028250e-01, 4.12839741e-01, 3.51479322e-01, 2.19215557e-01,
          0., 4.12839741e-01, 4.12839741e-01, 1.20014623e-01,
          3.57956260e-01, 4.12839741e-01, 4.38709587e-01, 4.38709587e-01,
          1.68230280e-01, 0., 4.38709587e-01, 4.38709587e-01,
          6.57082722e-02, 2.58510541e-02, 4.38709587e-01, 4.43661451e-01,
          3.01224273e-02, 6.16758019e-02, 2.90930625e-02, 4.73160893e-01,
          4.73160893e-01, 3.83432150e-01, 2.71818489e-01, 3.52438450e-01 ]
      - [ 4.88855898e-01, 4.88855898e-01, 7.23209903e-02, 1.38024911e-01,
          4.28283364e-01, 2.65395075e-01, 5.89446165e-03, 0.,
          4.88855898e-01, 4.04651076e-01, 3.06983948e-01, 3.05235267e-01,
          1.83450595e-01, 4.04651076e-01, 4.04651076e-01, 2.20686302e-01,
          2.66877234e-01, 4.04651076e-01, 4.63991076e-01, 4.63991076e-01,
          1.41252026e-01, 1.67972952e-01, 4.63991076e-01, 2.88882852e-01,
          4.72925827e-02, 1.89111475e-02, 4.63991076e-01, 3.76038402e-01,
          3.00069898e-01, 2.40358040e-01, 0., 3.76038402e-01,
          3.76038402e-01, 3.76038402e-01, 3.76038402e-01, 3.76038402e-01,
          3.61795962e-01, 3.37682456e-01, 2.21226260e-01, 3.61795962e-01,
          3.61795962e-01, 3.61795962e-01, 3.61795962e-01, 3.45479429e-01,
          2.44084746e-01, 3.36085916e-01, 5.81814460e-02, 6.81550279e-02,
          1.09795094e-01, 5.66539645e-01, 5.66539645e-01, 3.03194761e-01,
          1.90664724e-01, 3.01809907e-01, 1.48115650e-01, 2.67612755e-01,
          6.16188169e-01, 1.57810181e-01, 6.16188169e-01, 3.17140371e-01,
          7.35736564e-02, 2.53079832e-02, 9.68585610e-02, 1.36304229e-01,
          4.65111881e-01, 4.65111881e-01, 0., 1.91307202e-01,
          2.51850307e-01, 4.65111881e-01, 4.63720411e-01, 1.12803310e-01,
          2.41289809e-01, 2.62842476e-01, 5.06797135e-01, 0.,
          1.64759070e-01, 2.16071367e-01, 5.06797135e-01, 5.06797135e-01,
          1.52542099e-01, 5.11086643e-01, 5.11086643e-01, 3.03978890e-01,
          0., 6.02631904e-02, 0., 3.22038442e-01, 1.07346147e-01,
          5.11086643e-01, 5.15783608e-01, 5.15783608e-01, 4.22575176e-01,
          0., 1.32363319e-01, 2.57086661e-02, 0., 0., 5.15783608e-01,
          3.57361943e-01, 3.57361943e-01, 3.57361943e-01, 0.,
          3.57361943e-01, 3.57361943e-01, 3.57361943e-01, 3.20119590e-01,
          3.57361943e-01, 3.74229729e-01, 3.74229729e-01, 3.74229729e-01,
          1.43522769e-01, 3.74229729e-01, 3.56771201e-01, 3.24963689e-01,
          2.06242695e-01, 3.74229729e-01, 4.03006047e-01, 2.81407952e-01,
          2.45552674e-01, 2.02195451e-01, 4.03006047e-01, 4.03006047e-01,
          4.03006047e-01, 5.94580173e-02, 4.03006047e-01, 4.46744293e-01,
          4.46744293e-01, 1.22163050e-01, 2.18951836e-01, 4.46744293e-01,
          4.46744293e-01, 8.52832794e-02, 4.95589757e-03, 3.56446564e-01,
          3.82816166e-01, 2.70826370e-02, 2.94809099e-02, 0.,
          4.32853371e-01, 4.32853371e-01, 4.32853371e-01, 4.17979628e-01,
          3.32764715e-01 ]
      - [ 5.01680255e-01, 4.21881825e-01, 1.44727454e-01, 1.33066386e-01,
          5.01680255e-01, 1.52515620e-01, 6.52132928e-03, 0.,
          5.01680255e-01, 4.64760453e-01, 3.12155843e-01, 0.,
          1.74390748e-01, 4.64760453e-01, 4.64760453e-01, 5.91201037e-02,
          0., 4.64760453e-01, 4.48690325e-01, 3.25884700e-01,
          1.14940606e-01, 2.57654339e-01, 4.48690325e-01, 4.48690325e-01,
          6.32543489e-02, 2.06696019e-02, 4.48690325e-01, 3.78880203e-01,
          3.28909636e-01, 2.33226821e-01, 7.54579082e-02, 3.70443314e-01,
          3.41343820e-01, 3.78880203e-01, 3.78880203e-01, 3.78880203e-01,
          3.96151394e-01, 2.93566614e-01, 3.28563958e-01, 1.49066493e-01,
          3.96151394e-01, 3.96151394e-01, 3.96151394e-01, 3.62924397e-01,
          1.42225534e-01, 1.85966536e-01, 2.59552598e-02, 0.,
          1.40826195e-01, 6.55902207e-01, 6.55902207e-01, 2.48539895e-01,
          2.24281624e-02, 1.25187770e-01, 1.46944588e-02, 4.87869412e-01,
          4.87869412e-01, 2.04223856e-01, 4.87869412e-01, 4.87869412e-01,
          3.03595103e-02, 0., 1.46944588e-02, 0., 4.92780298e-01,
          4.92780298e-01, 7.19894022e-02, 7.70538822e-02, 1.06931418e-01,
          4.92780298e-01, 4.92780298e-01, 3.45604122e-02, 4.03234959e-01,
          2.83902794e-01, 2.81253159e-01, 2.51198351e-01, 6.74841851e-02,
          2.16130823e-01, 4.31670427e-01, 4.31670427e-01, 4.31670427e-01,
          5.69510400e-01, 5.69510400e-01, 1.42073175e-02, 0.,
          5.30504771e-02, 0., 1.28232524e-01, 4.27441709e-02,
          5.69510400e-01, 4.64911610e-01, 4.64911610e-01, 4.64911610e-01,
          8.59722570e-02, 3.48722816e-01, 2.80302856e-02, 1.11436592e-02,
          2.96034366e-02, 4.64911610e-01, 3.78257155e-01, 2.76650280e-01,
          3.78257155e-01, 2.69828975e-01, 1.44115791e-01, 3.78257155e-01,
          3.78257155e-01, 3.78257155e-01, 3.32740277e-01, 3.97251606e-01,
          3.97251606e-01, 2.74751872e-01, 2.61772543e-01, 3.97251606e-01,
          3.97251606e-01, 1.51560113e-01, 2.00008154e-01, 3.97251606e-01,
          4.85562384e-01, 2.26563200e-01, 1.62449274e-02, 0.,
          4.85562384e-01, 4.85562384e-01, 2.17296500e-02, 3.69883724e-04,
          4.85562384e-01, 5.12084186e-01, 2.87674963e-01, 2.14911886e-02,
          0., 5.12084186e-01, 5.12084186e-01, 5.92757873e-02,
          7.41492398e-03, 3.48436058e-01, 1.34052053e-01, 5.02159297e-02,
          1.01324497e-02, 0., 5.24438322e-01, 5.24438322e-01,
          5.24438322e-01, 3.48618060e-01, 1.65912881e-01 ]
      - [ 4.62101668e-01, 4.62101668e-01, 1.11122660e-01, 1.79337978e-01,
          4.62101668e-01, 3.10599327e-01, 1.58196576e-02, 0.,
          4.62101668e-01, 3.78477305e-01, 1.85280412e-01, 3.03645372e-01,
          1.01088919e-01, 3.78477305e-01, 3.78477305e-01, 3.78477305e-01,
          3.78477305e-01, 3.78477305e-01, 3.84034872e-01, 3.84034872e-01,
          3.54555994e-01, 3.81555498e-01, 3.84034872e-01, 3.84034872e-01,
          9.88529399e-02, 5.90193979e-02, 3.48830283e-01, 3.52929503e-01,
          3.52929503e-01, 3.52929503e-01, 0., 3.52929503e-01,
          3.52929503e-01, 3.52929503e-01, 3.52929503e-01, 3.52929503e-01,
          3.02794039e-01, 3.77629340e-01, 3.77629340e-01, 1.89383715e-01,
          3.77629340e-01, 3.10136169e-01, 3.77629340e-01, 3.77629340e-01,
          2.43870571e-01, 1.16700150e-01, 8.59132968e-03, 5.35598174e-02,
          2.85253674e-02, 5.49079597e-01, 5.49079597e-01, 5.41042745e-01,
          2.58592755e-01, 1.20694749e-01, 0., 4.66174155e-01,
          5.34970820e-01, 2.15844408e-01, 5.34970820e-01, 3.74866873e-01,
          1.22346051e-01, 5.34261912e-02, 3.84201715e-03, 5.71465231e-02,
          5.00965178e-01, 5.00965178e-01, 7.90034235e-02, 5.88953532e-02,
          1.07581787e-01, 5.00965178e-01, 4.63730514e-01, 5.00259288e-02,
          2.38313258e-01, 3.35112780e-01, 5.09370446e-01, 5.12366779e-02,
          3.92062478e-02, 1.88596621e-01, 5.09370446e-01, 5.09370446e-01,
          8.78256187e-02, 4.36740786e-01, 4.36740786e-01, 2.04755843e-01,
          0., 0., 0., 4.36740786e-01, 4.36740786e-01, 4.36740786e-01,
          5.16664386e-01, 5.16664386e-01, 3.75874519e-01, 0.,
          2.20993891e-01, 5.16404547e-02, 2.89440602e-02, 1.97338741e-02,
          5.16664386e-01, 3.61287206e-01, 2.05293790e-01, 3.61287206e-01,
          3.61287206e-01, 3.61287206e-01, 3.61287206e-01, 3.61287206e-01,
          2.01360062e-01, 3.61287206e-01, 4.03842896e-01, 4.03842896e-01,
          3.52046669e-01, 6.06269762e-02, 4.03842896e-01, 2.48615533e-01,
          3.70897353e-01, 1.44634411e-01, 3.98487478e-01, 3.68005961e-01,
          3.30648333e-01, 2.57347167e-01, 9.05380324e-02, 3.68005961e-01,
          3.68005961e-01, 3.68005961e-01, 3.68005961e-01, 3.68005961e-01,
          3.89394701e-01, 3.89394701e-01, 3.89394701e-01, 3.76570255e-01,
          3.89394701e-01, 3.89394701e-01, 1.24059401e-01, 6.01027422e-02,
          2.77778029e-01, 3.50595325e-01, 3.50595325e-01, 3.11841637e-01,
          2.67775059e-01, 3.50595325e-01, 3.50595325e-01, 3.50595325e-01,
          3.00076663e-01, 3.50595325e-01 ]
      - [ 4.14535522e-01, 4.14535522e-01, 3.21239918e-01, 4.34172936e-02,
          4.14535522e-01, 4.14535522e-01, 8.20700079e-02, 1.57622501e-01,
          4.14535522e-01, 4.20322746e-01, 1.45002186e-01, 2.45960817e-01,
          1.06616639e-01, 4.20322746e-01, 4.20322746e-01, 4.20322746e-01,
          1.39841765e-01, 4.20322746e-01, 3.02175701e-01, 4.37552929e-01,
          3.37190121e-01, 4.37552929e-01, 4.37552929e-01, 4.37552929e-01,
          1.26216903e-01, 2.27581803e-02, 9.14500058e-02, 3.69145006e-01,
          3.53870749e-01, 3.69145006e-01, 9.71557423e-02, 3.69145006e-01,
          3.69145006e-01, 3.69145006e-01, 2.09857181e-01, 3.69145006e-01,
          6.69672489e-02, 4.04115051e-01, 4.65171635e-01, 1.66192334e-02,
          3.31444621e-01, 1.31632671e-01, 4.65171635e-01, 4.65171635e-01,
          2.25714937e-01, 0., 0., 0., 0., 5.41793764e-01, 5.41793764e-01,
          5.41793764e-01, 3.37591618e-01, 0., 4.89396393e-01,
          1.78258479e-01, 4.89396393e-01, 0., 4.89396393e-01,
          7.19812885e-02, 1.03697665e-02, 3.45658860e-03, 4.89396393e-01,
          1.23053916e-01, 5.23527980e-01, 5.23527980e-01, 0.,
          2.75908202e-01, 3.47242951e-02, 5.23527980e-01, 2.54777372e-01,
          1.23053916e-01, 3.71392816e-01, 3.71392816e-01, 3.71392816e-01,
          2.12621484e-02, 1.74094811e-01, 3.71392816e-01, 3.71392816e-01,
          3.71392816e-01, 3.71392816e-01, 4.19180304e-01, 2.45413765e-01,
          3.65768284e-01, 6.18223883e-02, 2.38672823e-01, 1.95353866e-01,
          4.19180304e-01, 4.19180304e-01, 4.19180304e-01, 4.53956664e-01,
          4.53956664e-01, 3.30334932e-01, 1.73565373e-01, 4.53956664e-01,
          1.65008187e-01, 5.87417036e-02, 3.51359807e-02, 4.53956664e-01,
          4.04778391e-01, 1.19191207e-01, 3.44433933e-01, 0.,
          4.04778391e-01, 4.04778391e-01, 4.04778391e-01, 2.09492669e-01,
          4.04778391e-01, 4.15317774e-01, 4.15317774e-01, 1.76127568e-01,
          4.04361159e-01, 4.15317774e-01, 4.15317774e-01, 7.15780258e-02,
          7.41835777e-03, 3.25865686e-01, 3.96621376e-01, 8.46804678e-02,
          1.64316088e-01, 4.11537811e-02, 4.15347725e-01, 4.15347725e-01,
          4.15347725e-01, 3.35593760e-01, 4.15347725e-01, 3.27683002e-01,
          2.50130326e-01, 3.84961724e-01, 2.82022417e-01, 5.58550000e-01,
          4.58729982e-01, 1.82303056e-01, 8.38928595e-02, 1.84567437e-01,
          1.97681457e-01, 1.10535566e-02, 0., 0., 6.48264825e-01,
          6.48264825e-01, 2.34164074e-01, 6.53896183e-02, 2.33932883e-01 ]
      - [ 4.14637148e-01, 4.14637148e-01, 2.54778683e-01, 9.84048620e-02,
          4.14637148e-01, 4.14637148e-01, 2.44364649e-01, 4.39126901e-02,
          4.14637148e-01, 4.33294147e-01, 2.37296239e-01, 2.63866223e-02,
          1.85110182e-01, 4.33294147e-01, 4.33294147e-01, 4.33294147e-01,
          6.35800362e-02, 3.86500329e-01, 4.29870486e-01, 1.78472430e-01,
          2.21965462e-01, 3.76914889e-01, 5.12439191e-01, 5.12439191e-01,
          1.69307068e-01, 2.37708688e-02, 1.80249572e-01, 2.03417376e-01,
          2.61304021e-01, 3.75879914e-01, 3.75879914e-01, 3.75879914e-01,
          3.75879914e-01, 3.75879914e-01, 3.75879914e-01, 1.97159797e-01,
          1.12989977e-01, 4.35960591e-01, 4.51031893e-01, 3.10151223e-02,
          1.11435004e-01, 4.11092907e-01, 4.51031893e-01, 4.51031893e-01,
          0., 0., 0., 0., 0., 5.53588629e-01, 5.53588629e-01,
          5.53588629e-01, 2.74026811e-01, 0., 2.83129483e-01,
          5.26126027e-01, 5.26126027e-01, 0., 5.26126027e-01,
          3.22547369e-02, 5.20124957e-02, 1.58049129e-02, 2.83129483e-01,
          8.99836943e-02, 4.72007036e-01, 4.72007036e-01, 0.,
          2.96528041e-01, 0., 4.72007036e-01, 4.72007036e-01,
          8.99836943e-02, 4.10758793e-01, 3.74059737e-01, 4.10758793e-01,
          2.28808984e-01, 3.99039201e-02, 2.45860010e-01, 4.10758793e-01,
          4.10758793e-01, 2.58247316e-01, 4.86060053e-01, 4.86060053e-01,
          0., 0., 2.99954832e-01, 1.13365576e-01, 1.83163241e-01,
          3.87309611e-01, 4.86060053e-01, 4.64383036e-01, 4.64383036e-01,
          5.74126579e-02, 0., 4.64383036e-01, 3.58871102e-01,
          2.12167818e-02, 1.48421312e-02, 4.64383036e-01, 3.71001810e-01,
          3.33504111e-01, 2.43340075e-01, 0., 3.71001810e-01,
          3.71001810e-01, 3.71001810e-01, 3.71001810e-01, 3.71001810e-01,
          4.11567450e-01, 3.56620252e-01, 4.11567450e-01, 4.11567450e-01,
          4.11567450e-01, 2.97864497e-01, 1.37274712e-01, 4.14587334e-02,
          2.86134958e-01, 4.77029085e-01, 1.97040245e-01, 0., 0.,
          4.77029085e-01, 4.77029085e-01, 8.59447941e-02, 1.96969748e-01,
          4.77029085e-01, 4.31972206e-01, 3.57329816e-01, 0., 0.,
          5.60274839e-01, 5.60274839e-01, 8.95172656e-02, 2.17138454e-02,
          2.09331751e-01, 1.55837476e-01, 6.56911507e-02, 0., 0.,
          6.00753486e-01, 6.00753486e-01, 4.28178459e-01, 1.85208961e-01,
          1.61097050e-01 ]
      - [ 4.49220091e-01, 4.49220091e-01, 3.27037513e-01, 1.92943141e-01,
          4.49220091e-01, 2.09918961e-01, 8.45741387e-03, 0.,
          4.49220091e-01, 4.03086901e-01, 4.03086901e-01, 1.56247929e-01,
          2.06429794e-01, 4.03086901e-01, 4.03086901e-01, 3.11617345e-01,
          1.39448151e-01, 4.03086901e-01, 4.28858846e-01, 4.28858846e-01,
          1.46190122e-01, 1.84981763e-01, 4.28858846e-01, 4.28858846e-01,
          1.38429284e-01, 3.69337946e-02, 4.28858846e-01, 3.92396122e-01,
          2.32491538e-01, 1.86977699e-01, 0., 3.70396316e-01,
          3.92396122e-01, 3.92396122e-01, 3.92396122e-01, 3.92396122e-01,
          3.32778692e-01, 3.32778692e-01, 3.32778692e-01, 3.32778692e-01,
          3.32778692e-01, 3.32778692e-01, 3.32778692e-01, 3.32778692e-01,
          3.32778692e-01, 2.24768266e-01, 7.61694014e-02, 4.69450504e-02,
          1.55032620e-01, 5.89604735e-01, 5.89604735e-01, 4.06505078e-01,
          7.04048425e-02, 2.14663744e-01, 1.01942174e-01, 4.88712788e-01,
          4.88712788e-01, 1.53460324e-01, 4.88712788e-01, 4.88712788e-01,
          6.82105273e-02, 4.93636727e-03, 3.37479189e-02, 1.77552328e-01,
          4.81940120e-01, 4.81940120e-01, 0., 6.94164336e-02,
          7.84789845e-02, 4.81940120e-01, 4.81940120e-01, 1.53683871e-01,
          7.58451000e-02, 3.50095332e-01, 5.31763732e-01, 5.36470711e-02,
          1.98968761e-02, 9.62711647e-02, 5.31763732e-01, 5.31763732e-01,
          7.42321908e-02, 4.46089029e-01, 4.46089029e-01, 0., 0.,
          2.27323603e-02, 7.09096715e-03, 4.46089029e-01, 4.46089029e-01,
          4.46089029e-01, 4.71371949e-01, 4.71371949e-01, 4.71371949e-01,
          2.88863868e-01, 1.48392752e-01, 0., 2.49712281e-02,
          2.09640022e-02, 4.71371949e-01, 1.83573917e-01, 2.15043902e-01,
          3.83520097e-01, 3.83520097e-01, 3.83520097e-01, 3.83520097e-01,
          3.83520097e-01, 3.83520097e-01, 1.83573917e-01, 3.64787132e-01,
          3.64787132e-01, 3.64787132e-01, 2.38955647e-01, 3.64787132e-01,
          3.64787132e-01, 3.64787132e-01, 2.14766577e-01, 3.07755083e-01,
          3.91984940e-01, 3.91984940e-01, 1.86380565e-01, 1.95319697e-01,
          3.91984940e-01, 3.91984940e-01, 3.91984940e-01, 3.58225405e-02,
          3.91984940e-01, 4.35432255e-01, 4.35432255e-01, 5.68249524e-02,
          1.93521097e-01, 4.35432255e-01, 4.35432255e-01, 7.50920326e-02,
          3.64115424e-02, 4.35432255e-01, 4.06541556e-01, 5.96037786e-03,
          2.63757054e-02, 5.95919974e-02, 4.06541556e-01, 4.06541556e-01,
          4.06541556e-01, 4.06541556e-01, 4.06541556e-01 ]
      - [ 4.61972564e-01, 4.61972564e-01, 2.17853993e-01, 6.18337765e-02,
          4.61972564e-01, 2.93868840e-01, 6.37824163e-02, 0.,
          4.61972564e-01, 3.91218245e-01, 2.72376627e-01, 2.77824253e-01,
          2.56660312e-01, 3.91218245e-01, 3.91218245e-01, 3.91218245e-01,
          1.16547540e-01, 3.91218245e-01, 4.38082546e-01, 4.22084779e-01,
          1.66885123e-01, 2.76906401e-01, 4.38082546e-01, 4.38082546e-01,
          4.01841961e-02, 4.33476046e-02, 3.65647137e-01, 3.65135849e-01,
          3.65135849e-01, 2.22782850e-01, 1.15976863e-01, 3.65135849e-01,
          3.65135849e-01, 3.65135849e-01, 3.65135849e-01, 3.65135849e-01,
          2.61077464e-01, 2.27242798e-01, 4.07953799e-01, 1.08704470e-01,
          4.07953799e-01, 3.83355528e-01, 4.07953799e-01, 4.07953799e-01,
          2.27245703e-01, 1.13880746e-01, 8.21210793e-04, 1.96533520e-02,
          1.20591082e-01, 6.45788372e-01, 6.45788372e-01, 2.98634976e-01,
          6.62128255e-02, 1.94941998e-01, 1.13690579e-02, 4.83468205e-01,
          4.83468205e-01, 3.56984705e-01, 4.83468205e-01, 4.07365352e-01,
          1.70103461e-02, 3.80397006e-03, 1.13690579e-02, 8.42554420e-02,
          4.31073725e-01, 4.31073725e-01, 2.65329957e-01, 4.07681406e-01,
          3.99201550e-02, 4.31073725e-01, 4.31073725e-01, 8.42554420e-02,
          4.01785702e-01, 3.40928048e-01, 3.95253658e-01, 0.,
          3.70926082e-01, 1.35649657e-02, 4.01785702e-01, 3.37450087e-01,
          3.86034161e-01, 4.58158404e-01, 4.58158404e-01, 3.03598583e-01,
          1.57654025e-02, 3.59710068e-01, 1.22508258e-01, 2.20258862e-01,
          2.83482015e-01, 4.58158404e-01, 4.80260283e-01, 4.80260283e-01,
          1.87574819e-01, 9.57640447e-03, 4.80260283e-01, 1.89544603e-01,
          2.82144696e-02, 2.45802812e-02, 4.80260283e-01, 3.92414808e-01,
          1.14597350e-01, 3.43792051e-01, 0., 3.92414808e-01,
          3.92414808e-01, 3.92414808e-01, 3.07908118e-01, 3.92414808e-01,
          4.56065744e-01, 4.56065744e-01, 2.69450635e-01, 6.03592321e-02,
          4.56065744e-01, 4.56065744e-01, 9.33630615e-02, 1.99365001e-02,
          2.79463381e-01, 4.26353455e-01, 1.22522727e-01, 1.53742254e-01,
          3.52051705e-02, 4.26353455e-01, 4.26353455e-01, 4.26353455e-01,
          2.16718256e-01, 4.26353455e-01, 4.11395460e-01, 2.34453663e-01,
          1.68727711e-01, 5.69501631e-02, 6.47418857e-01, 4.57843274e-01,
          1.32914647e-01, 5.09174019e-02, 2.97622055e-01, 2.46899426e-01,
          0., 0., 0., 5.14332235e-01, 5.14332235e-01, 4.97716844e-01,
          1.62260264e-01, 3.61632824e-01 ]
      - [ 5.13659418e-01, 5.13659418e-01, 2.46042043e-01, 1.76143005e-01,
          3.17083210e-01, 1.05958529e-01, 0., 0., 5.13659418e-01,
          4.67142880e-01, 1.52959496e-01, 6.10495545e-02, 3.45850387e-03,
          4.38026726e-01, 4.67142880e-01, 1.41743809e-01, 3.18704039e-01,
          4.67142880e-01, 4.64753956e-01, 4.64753956e-01, 2.59483516e-01,
          1.50456443e-01, 4.64753956e-01, 9.66576338e-02, 1.30375162e-01,
          1.22733794e-01, 4.64753956e-01, 4.33452129e-01, 2.03268796e-01,
          6.89211339e-02, 8.41356255e-03, 4.33452129e-01, 4.33452129e-01,
          4.33452129e-01, 1.00634031e-01, 4.33452129e-01, 3.52287143e-01,
          3.52287143e-01, 3.52287143e-01, 3.06260943e-01, 3.52287143e-01,
          1.84230760e-01, 3.52287143e-01, 3.52287143e-01, 3.52287143e-01,
          5.35671592e-01, 5.13490662e-02, 2.13510245e-02, 4.59219422e-03,
          5.42642474e-01, 5.42642474e-01, 2.13441595e-01, 1.55392557e-01,
          2.14236826e-01, 3.00522089e-01, 2.21528098e-01, 2.26601005e-01,
          2.07961023e-01, 6.50554836e-01, 4.08084720e-01, 3.56763154e-01,
          1.80353925e-01, 9.97937322e-02, 3.90082479e-01, 4.05984879e-01,
          4.05984879e-01, 2.80138433e-01, 4.05984879e-01, 2.65932530e-01,
          4.05984879e-01, 1.36985362e-01, 1.28539845e-01, 1.01478316e-01,
          3.32259625e-01, 5.12597799e-01, 9.12102088e-02, 1.29848078e-01,
          1.53465316e-01, 5.12597799e-01, 5.12597799e-01, 1.92835063e-01,
          4.72941697e-01, 2.71775991e-01, 1.43404514e-01, 0.,
          3.07164222e-01, 0., 4.72941697e-01, 3.68073016e-01,
          4.72941697e-01, 5.91195881e-01, 4.71370876e-01, 2.10814819e-01,
          0., 1.66740298e-01, 0., 0., 2.52199583e-02, 5.91195881e-01,
          3.88276190e-01, 2.97418058e-01, 3.88276190e-01, 3.88276190e-01,
          3.88276190e-01, 2.18221381e-01, 2.53772408e-01, 2.04573900e-01,
          3.88276190e-01, 3.77500564e-01, 3.77500564e-01, 3.77500564e-01,
          2.00789526e-01, 3.77500564e-01, 3.06326598e-01, 3.74740571e-01,
          9.54583660e-02, 3.77500564e-01, 4.26375479e-01, 1.98799103e-01,
          1.28210008e-01, 7.35996068e-02, 4.26375479e-01, 4.26375479e-01,
          4.26375479e-01, 1.59326211e-01, 4.26375479e-01, 3.88549596e-01,
          2.57237673e-01, 3.88549596e-01, 3.88549596e-01, 3.88549596e-01,
          3.88549596e-01, 3.08744460e-01, 8.74129310e-02, 2.68568426e-01,
          4.09319311e-01, 3.33955586e-01, 3.60624850e-01, 1.83999777e-01,
          4.09319311e-01, 4.09319311e-01, 1.84228241e-01, 1.27942458e-01,
          4.09319311e-01 ]
      - [ 4.56228405e-01, 2.37008795e-01, 4.56228405e-01, 1.11009993e-01,
          4.56228405e-01, 2.18631715e-01, 1.61419570e-01, 1.43223375e-01,
          4.56228405e-01, 4.32499886e-01, 2.76435427e-02, 2.73327734e-02,
          2.18355119e-01, 4.32499886e-01, 4.32499886e-01, 4.32499886e-01,
          1.05870634e-01, 4.32499886e-01, 4.64436650e-01, 1.07862107e-01,
          1.39074758e-01, 4.39491421e-01, 6.44449651e-01, 9.02525038e-02,
          1.11508891e-01, 2.95455121e-02, 3.42005551e-01, 2.66914546e-01,
          3.67854297e-01, 3.67854297e-01, 4.52936068e-02, 3.67854297e-01,
          3.33360642e-01, 3.67854297e-01, 3.67854297e-01, 3.67854297e-01,
          7.32735097e-02, 2.87316501e-01, 4.72340912e-01, 1.23130353e-02,
          4.63079542e-01, 8.13612565e-02, 4.72340912e-01, 4.72340912e-01,
          1.29732251e-01, 0., 0., 0., 0., 6.08273447e-01, 4.55553323e-01,
          6.08273447e-01, 2.15417311e-01, 0., 0., 5.74281514e-01,
          5.74281514e-01, 9.34519339e-03, 5.74281514e-01, 3.54315825e-02,
          5.65016158e-02, 1.82340406e-02, 0., 3.52094173e-02,
          4.90908116e-01, 4.90908116e-01, 1.82024345e-01, 4.75554466e-02,
          0., 4.90908116e-01, 4.84389037e-01, 2.92900503e-02,
          2.32115015e-01, 3.03191960e-01, 4.93972152e-01, 1.16721131e-01,
          0., 0., 4.93972152e-01, 4.93972152e-01, 3.21891874e-01,
          5.21715522e-01, 1.83629707e-01, 8.45618919e-03, 0., 0., 0.,
          3.80048782e-01, 5.21715522e-01, 5.21715522e-01, 5.52948236e-01,
          5.52948236e-01, 2.69541055e-01, 0., 0., 0., 0., 6.76051825e-02,
          5.52948236e-01, 3.73767555e-01, 3.73767555e-01, 3.73767555e-01,
          3.73767555e-01, 0., 1.35463759e-01, 3.73767555e-01,
          3.73767555e-01, 3.73767555e-01, 3.62316728e-01, 3.62316728e-01,
          3.62316728e-01, 3.62316728e-01, 3.62316728e-01, 1.82555199e-01,
          3.32810521e-01, 2.54264176e-01, 3.62316728e-01, 4.44967955e-01,
          1.79253042e-01, 2.17801728e-03, 3.46312709e-02, 4.44967955e-01,
          4.11966413e-01, 2.27428228e-02, 4.44967955e-01, 4.44967955e-01,
          4.39298958e-01, 4.39298958e-01, 3.79485986e-03, 1.49831086e-01,
          4.39298958e-01, 4.39298958e-01, 4.47227014e-03, 9.06095728e-02,
          4.39298958e-01, 4.53876644e-01, 1.11139156e-01, 3.64412256e-02,
          5.87058533e-03, 4.53876644e-01, 4.53876644e-01, 4.53876644e-01,
          2.24917099e-01, 3.27335268e-01 ]
      - [ 4.64109421e-01, 4.64109421e-01, 1.12201028e-01, 1.73584640e-01,
          4.64109421e-01, 3.01750630e-01, 0., 0., 4.64109421e-01,
          4.01470870e-01, 2.57921547e-01, 2.43869498e-01, 2.23518442e-02,
          4.01470870e-01, 4.01470870e-01, 2.52189934e-01, 4.01470870e-01,
          4.01470870e-01, 4.41463053e-01, 3.77899677e-01, 2.81981379e-01,
          8.25027376e-02, 4.41463053e-01, 4.17181492e-01, 7.73303807e-02,
          4.21028361e-02, 4.41463053e-01, 3.54719013e-01, 3.54719013e-01,
          3.54719013e-01, 0., 3.40113163e-01, 3.54719013e-01,
          3.54719013e-01, 3.54719013e-01, 3.54719013e-01, 2.88988948e-01,
          2.51461387e-01, 2.65196204e-01, 2.50730634e-01, 4.10245746e-01,
          3.81287545e-01, 4.10245746e-01, 3.12513769e-01, 3.69203508e-01,
          1.40011579e-01, 7.28757307e-03, 7.18379840e-02, 7.88685307e-03,
          6.50725305e-01, 6.50725305e-01, 2.46754080e-01, 2.09053233e-01,
          1.30944490e-01, 0., 4.74103272e-01, 5.88379085e-01,
          4.37776595e-02, 5.88379085e-01, 2.59260088e-01, 8.14628154e-02,
          3.46806422e-02, 0., 5.93611263e-02, 4.97143030e-01,
          4.97143030e-01, 8.69750902e-02, 7.14282840e-02, 1.18644513e-01,
          4.97143030e-01, 4.70051259e-01, 4.86433320e-02, 4.46348995e-01,
          2.47826070e-01, 4.46348995e-01, 3.92825932e-05, 2.31851503e-01,
          0., 4.46348995e-01, 4.46348995e-01, 2.88892537e-01,
          4.70955223e-01, 4.70955223e-01, 3.11672419e-01, 7.48468786e-02,
          0., 0., 7.32049718e-02, 4.70955223e-01, 4.70955223e-01,
          4.92958128e-01, 4.92958128e-01, 3.86474848e-01, 1.34891719e-01,
          2.83870876e-01, 1.31772831e-01, 1.49191897e-02, 1.80400684e-02,
          4.92958128e-01, 3.55419308e-01, 2.45477110e-01, 3.55419308e-01,
          3.55419308e-01, 3.55419308e-01, 3.55419308e-01, 3.55419308e-01,
          2.27881283e-01, 3.55419308e-01, 3.82335395e-01, 3.82335395e-01,
          3.51693630e-01, 2.89787114e-01, 3.82335395e-01, 3.82335395e-01,
          2.30421692e-01, 6.72257543e-02, 3.82335395e-01, 3.83562326e-01,
          2.38065943e-01, 1.86760113e-01, 1.47962540e-01, 3.83562326e-01,
          3.83562326e-01, 3.83562326e-01, 3.83562326e-01, 3.83562326e-01,
          4.08138245e-01, 3.13273430e-01, 3.02510589e-01, 4.08138245e-01,
          4.08138245e-01, 4.08138245e-01, 9.91640314e-02, 5.37613817e-02,
          3.56705636e-01, 3.47660571e-01, 3.47660571e-01, 3.36105794e-01,
          2.10492730e-01, 3.47660571e-01, 3.47660571e-01, 3.47660571e-01,
          3.37705225e-01, 3.47660571e-01 ]
      - [ 5.09107351e-01, 5.09107351e-01, 8.09344202e-02, 4.91312779e-02,
          4.28683579e-01, 1.56878144e-01, 0., 0., 5.09107351e-01,
          3.99624676e-01, 3.82164031e-01, 1.55075356e-01, 1.39618561e-01,
          3.16016823e-01, 3.99624676e-01, 2.60289252e-01, 3.99624676e-01,
          3.99624676e-01, 4.22879040e-01, 4.22879040e-01, 1.51785150e-01,
          2.71770447e-01, 4.22879040e-01, 4.22879040e-01, 5.54125123e-02,
          4.09126468e-02, 4.22879040e-01, 3.87196273e-01, 3.22458178e-01,
          5.84777519e-02, 5.38257435e-02, 3.87196273e-01, 3.87196273e-01,
          3.87196273e-01, 3.69094551e-01, 3.87196273e-01, 3.78095925e-01,
          3.78095925e-01, 3.19375455e-01, 9.83372405e-02, 3.78095925e-01,
          3.13994795e-01, 3.44930261e-01, 3.78095925e-01, 3.08473408e-01,
          3.26915950e-01, 1.33384004e-01, 8.18458349e-02, 2.18092799e-01,
          5.15505254e-01, 5.15505254e-01, 3.63260984e-01, 2.50663787e-01,
          2.99400717e-01, 2.47779205e-01, 2.71642715e-01, 4.59378779e-01,
          4.59378779e-01, 4.59378779e-01, 4.59378779e-01, 1.03373967e-01,
          4.75294441e-02, 5.62721863e-02, 7.31679425e-02, 4.46079314e-01,
          4.46079314e-01, 7.81259313e-02, 3.42874080e-01, 2.56545573e-01,
          4.46079314e-01, 3.94773483e-01, 2.18865931e-01, 1.10492505e-01,
          3.33154321e-01, 5.26330531e-01, 4.83658873e-02, 9.84509662e-02,
          1.42047733e-01, 5.26330531e-01, 5.26330531e-01, 9.08970088e-02,
          4.51127142e-01, 2.44077012e-01, 2.87401319e-01, 0.,
          3.51699501e-01, 0., 4.51127142e-01, 3.45081240e-01,
          4.51127142e-01, 5.08117735e-01, 4.69440579e-01, 5.08117735e-01,
          0., 0., 0., 0., 0., 5.08117735e-01, 3.05418313e-01,
          3.24017763e-01, 3.56380135e-01, 3.56380135e-01, 3.56380135e-01,
          3.56380135e-01, 3.56380135e-01, 2.64305323e-01, 3.05418313e-01,
          3.39725643e-01, 3.39725643e-01, 3.39725643e-01, 3.39725643e-01,
          3.39725643e-01, 3.39725643e-01, 3.39725643e-01, 2.70735532e-01,
          3.39725643e-01, 3.69016945e-01, 2.33083114e-01, 3.51619184e-01,
          3.61725353e-02, 3.69016945e-01, 3.69016945e-01, 3.69016945e-01,
          3.69016945e-01, 3.69016945e-01, 4.10331249e-01, 3.57059836e-01,
          4.10331249e-01, 1.48524880e-01, 4.10331249e-01, 3.89657885e-01,
          1.30198568e-01, 6.38569593e-02, 4.10331249e-01, 4.35559720e-01,
          7.08400644e-03, 3.88896391e-02, 3.59220989e-02, 4.35559720e-01,
          4.35559720e-01, 4.35559720e-01, 2.10321054e-01, 4.35559720e-01 ]
      - [ 4.95397329e-01, 4.95397329e-01, 7.99343884e-02, 6.89427331e-02,
          3.86297286e-01, 3.10593516e-01, 4.42736112e-02, 0.,
          4.95397329e-01, 4.09303337e-01, 4.09303337e-01, 1.27913967e-01,
          8.76392648e-02, 4.09303337e-01, 4.09303337e-01, 2.05930933e-01,
          3.03009897e-01, 4.09303337e-01, 4.45226490e-01, 4.03745383e-01,
          1.95657268e-01, 3.64617586e-01, 4.45226490e-01, 1.86967671e-01,
          1.36934146e-01, 1.13696195e-01, 4.45226490e-01, 3.55082899e-01,
          3.55082899e-01, 3.55082899e-01, 0., 3.55082899e-01,
          3.55082899e-01, 3.37439299e-01, 3.55082899e-01, 3.55082899e-01,
          3.77259880e-01, 3.77259880e-01, 3.77259880e-01, 2.05212206e-01,
          3.77259880e-01, 3.77259880e-01, 3.77259880e-01, 2.57472903e-01,
          1.84055611e-01, 3.07521999e-01, 1.15624972e-01, 3.53017822e-03,
          1.67400930e-02, 5.75760722e-01, 5.75760722e-01, 4.08206791e-01,
          1.02920696e-01, 2.13992745e-01, 3.03261559e-02, 1.24483798e-02,
          5.54985069e-02, 2.63173699e-01, 7.34515071e-01, 4.63498443e-01,
          3.71213675e-01, 1.57245070e-01, 4.88320924e-02, 6.41382337e-02,
          5.21394432e-01, 5.21394432e-01, 1.89009830e-01, 2.61984020e-01,
          1.68844417e-01, 5.21394432e-01, 1.98572278e-01, 5.31309918e-02,
          1.50211915e-01, 4.08087671e-01, 5.12168467e-01, 2.28068326e-02,
          0., 3.97691727e-02, 5.12168467e-01, 5.12168467e-01,
          1.29361674e-01, 4.99119252e-01, 4.99119252e-01, 1.77400466e-02,
          6.39254451e-02, 0., 4.89611141e-02, 4.76839513e-01,
          1.16106108e-01, 4.99119252e-01, 4.85071480e-01, 4.85071480e-01,
          1.87146086e-02, 1.30445823e-01, 3.99787486e-01, 3.28843147e-01,
          6.27521053e-02, 0., 4.85071480e-01, 3.98163766e-01,
          3.98163766e-01, 3.44945341e-01, 1.76628768e-01, 3.98163766e-01,
          3.98163766e-01, 1.69784248e-01, 1.56008810e-01, 3.98163766e-01,
          3.54473650e-01, 3.54473650e-01, 3.54473650e-01, 1.32420063e-01,
          3.54473650e-01, 3.54473650e-01, 3.54473650e-01, 3.15218210e-01,
          3.54473650e-01, 4.20747429e-01, 3.70791495e-01, 1.15150092e-02,
          8.02626908e-02, 4.20747429e-01, 4.20747429e-01, 3.77689987e-01,
          3.11848801e-02, 4.20747429e-01, 4.15829420e-01, 3.91916662e-01,
          4.92608063e-02, 4.15829420e-01, 4.15829420e-01, 4.15829420e-01,
          3.47139776e-01, 1.57712735e-02, 1.65558219e-01, 3.55508268e-01,
          1.18870869e-01, 0., 0., 6.21552348e-01, 6.21552348e-01,
          1.95060372e-01, 2.89873369e-02, 2.04289764e-01 ]
      - [ 4.03427839e-01, 4.03427839e-01, 3.69317442e-01, 3.24381620e-01,
          4.03427839e-01, 3.20990086e-01, 1.73257459e-02, 0.,
          4.03427839e-01, 4.18256193e-01, 2.52469987e-01, 2.14461878e-01,
          1.07075304e-01, 4.18256193e-01, 2.32251316e-01, 3.47747266e-01,
          4.18256193e-01, 4.18256193e-01, 4.01206464e-01, 4.01206464e-01,
          2.59683013e-01, 3.73482138e-01, 4.01206464e-01, 3.27761471e-01,
          2.18091920e-01, 1.27123833e-01, 3.67445141e-01, 3.72948319e-01,
          3.72948319e-01, 3.72948319e-01, 2.93101501e-02, 3.72948319e-01,
          3.72948319e-01, 1.47586659e-01, 3.72948319e-01, 3.72948319e-01,
          3.04872632e-01, 3.39358330e-01, 3.39358330e-01, 3.27805370e-01,
          3.39358330e-01, 3.24377984e-01, 3.39358330e-01, 3.39358330e-01,
          3.39358330e-01, 9.82058868e-02, 3.91114205e-02, 4.58805077e-02,
          8.24518502e-02, 5.58541358e-01, 5.58541358e-01, 5.24385750e-01,
          2.36674666e-01, 1.39330059e-01, 0., 1.05863437e-02,
          1.52874425e-01, 2.79948056e-01, 7.05199122e-01, 2.45677561e-01,
          5.57079017e-01, 1.49557397e-01, 2.71843988e-02, 0.,
          4.62665379e-01, 4.62665379e-01, 4.62665379e-01, 4.62665379e-01,
          1.09667949e-01, 3.38931948e-01, 1.10613205e-01, 2.12581479e-03,
          9.82333422e-02, 3.57015371e-01, 5.25458753e-01, 7.86570981e-02,
          2.70399656e-02, 0., 5.25458753e-01, 5.25458753e-01,
          1.49678126e-01, 4.65783119e-01, 4.65783119e-01, 0., 0., 0., 0.,
          4.24373329e-01, 4.05454338e-01, 4.65783119e-01, 5.54534316e-01,
          5.54534316e-01, 6.02594167e-02, 0., 2.56421119e-01, 0., 0.,
          5.05422279e-02, 5.54534316e-01, 4.33634520e-01, 3.77421290e-01,
          1.16304182e-01, 6.80726916e-02, 4.33634520e-01, 1.13766566e-01,
          4.33634520e-01, 2.64504194e-01, 4.33634520e-01, 3.53746086e-01,
          2.99893320e-01, 3.53746086e-01, 3.53746086e-01, 3.53746086e-01,
          2.16234535e-01, 3.30082774e-01, 3.53746086e-01, 3.53746086e-01,
          4.27270383e-01, 4.27270383e-01, 3.06379632e-04, 3.76830809e-02,
          4.27270383e-01, 4.27270383e-01, 9.64141041e-02, 2.68730819e-01,
          4.27270383e-01, 4.40315574e-01, 4.40315574e-01, 9.46484208e-02,
          3.46818417e-02, 4.40315574e-01, 4.40315574e-01, 8.89871269e-02,
          9.01814923e-02, 4.40315574e-01, 3.94000679e-01, 1.71943218e-01,
          3.94000679e-01, 8.36503282e-02, 3.94000679e-01, 3.94000679e-01,
          3.94000679e-01, 2.43799508e-01, 3.51967603e-01 ]
      - [ 0., 0., 0., 0., 0., 0., 0., 0., 0., 0., 0., 0., 0., 0., 0., 0.,
          0., 0., 0., 0., 0., 0., 0., 0., 0., 0., 0., 0., 0., 0., 0., 0.,
          0., 0., 0., 0., 0., 0., 0., 0., 0., 0., 0., 0., 0., 0., 0., 0.,
          0., 0., 0., 0., 0., 0., 0., 0., 0., 0., 0., 0., 0., 0., 0., 0.,
          0., 0., 0., 0., 0., 0., 0., 0., 4.69430655e-01, 4.31969017e-01,
          3.49341601e-01, 4.69430655e-01, 1.56453505e-01, 0., 0.,
          3.31864767e-02, 4.69430655e-01, 5.45345604e-01, 0.,
          1.67810195e-03, 1.17723960e-02, 4.51628953e-01, 0., 0.,
          4.42312419e-01, 5.45345604e-01, 5.42771995e-01, 3.55078340e-01,
          0., 0., 4.85614151e-01, 0., 0., 2.08506465e-01, 5.42771995e-01,
          6.24219835e-01, 2.98974812e-02, 0., 0., 4.20063317e-01,
          1.00474216e-01, 1.43221160e-02, 1.63766921e-01, 6.24219835e-01,
          3.09258282e-01, 1.74119562e-01, 4.11592036e-01, 5.60882330e-01,
          5.60882330e-01, 0., 0., 1.09969508e-02, 2.64071703e-01,
          2.57707775e-01, 0., 5.87467663e-03, 4.12126407e-02,
          7.14203238e-01, 0., 0., 1.77094296e-01, 6.19092703e-01,
          5.01816928e-01, 1.89634323e-01, 0., 3.67182791e-01,
          5.29961526e-01, 0., 0., 1.02757566e-01, 5.29796779e-01,
          5.16005695e-01, 1.47011038e-02, 0., 6.34192675e-02,
          5.16005695e-01, 4.29662019e-01, 2.69969795e-02, 8.05270150e-02,
          5.16005695e-01 ]
      - [ 0., 0., 0., 0., 0., 0., 0., 0., 0., 0., 0., 0., 0., 0., 0., 0.,
          0., 0., 0., 0., 0., 0., 0., 0., 0., 0., 0., 0., 0., 0., 0., 0.,
          0., 0., 0., 0., 0., 0., 0., 0., 0., 0., 0., 0., 0., 0., 0., 0.,
          0., 0., 0., 0., 0., 0., 0., 0., 0., 0., 0., 0., 0., 0., 0., 0.,
          0., 0., 0., 0., 0., 0., 0., 0., 6.06060326e-01, 4.82869327e-01,
          1.61764294e-01, 0., 0., 0., 0., 0., 6.06060326e-01,
          5.43192446e-01, 5.43192446e-01, 3.52973901e-02, 0., 0., 0.,
          1.38591915e-01, 2.98241138e-01, 5.43192446e-01, 6.20486796e-01,
          4.43097204e-01, 1.35468602e-01, 0., 3.98688912e-02, 0.,
          3.65464799e-02, 7.86457509e-02, 6.20486796e-01, 5.70926368e-01,
          0., 0., 0., 3.55613321e-01, 1.78834230e-01, 2.32403427e-01,
          3.60459536e-01, 5.70926368e-01, 3.76491517e-01, 3.76491517e-01,
          3.76491517e-01, 3.76491517e-01, 3.76491517e-01, 3.76491517e-01,
          6.33853078e-02, 0., 3.76491517e-01, 4.36370522e-01,
          3.32711250e-01, 6.62594065e-02, 1.20910808e-01, 4.36370522e-01,
          4.36370522e-01, 2.82990754e-01, 1.55479640e-01, 4.36370522e-01,
          4.08836812e-01, 2.48082504e-01, 2.85750747e-01, 4.08836812e-01,
          4.08836812e-01, 4.08836812e-01, 1.20676413e-01, 4.91622426e-02,
          4.08836812e-01, 4.55323368e-01, 0., 0., 0., 4.55323368e-01,
          4.55323368e-01, 3.47812921e-01, 2.12604612e-01, 4.55323368e-01 ]
      - [ 0., 0., 0., 0., 0., 0., 0., 0., 0., 0., 0., 0., 0., 0., 0., 0.,
          0., 0., 0., 0., 0., 0., 0., 0., 0., 0., 0., 0., 0., 0., 0., 0.,
          0., 0., 0., 0., 0., 0., 0., 0., 0., 0., 0., 0., 0., 0., 0., 0.,
          0., 0., 0., 0., 0., 0., 7.04615593e-01, 0., 0., 0., 0., 0., 0.,
          0., 7.04615593e-01, 7.04615593e-01, 0., 0., 0., 0., 0., 0., 0.,
          7.04615593e-01, 5.75495601e-01, 5.75495601e-01, 2.58401968e-02,
          0., 0., 0., 0., 0., 5.75495601e-01, 6.11415088e-01,
          3.64989638e-01, 0., 0., 3.36185932e-01, 0., 0., 0.,
          6.11415088e-01, 5.00044346e-01, 5.00044346e-01, 0., 0.,
          4.55910951e-01, 1.91943720e-01, 1.32522201e-02, 0.,
          5.00044346e-01, 4.23275143e-01, 2.23107353e-01, 0., 0.,
          4.23275143e-01, 2.71695822e-01, 4.23275143e-01, 3.94371629e-01,
          4.23275143e-01, 5.05775332e-01, 4.54404950e-01, 1.32158950e-01,
          2.54966557e-01, 5.05775332e-01, 8.84745568e-02, 0., 0.,
          4.31909442e-01, 4.97819245e-01, 6.10897765e-02, 0., 0.,
          4.97819245e-01, 4.97819245e-01, 0., 0., 4.97819245e-01,
          4.11037028e-01, 1.61940724e-01, 0., 0., 6.07213259e-01,
          6.07213259e-01, 5.98490052e-02, 0., 2.40339190e-01,
          1.15240037e-01, 3.12142912e-02, 0., 0., 6.26977384e-01,
          6.26977384e-01, 4.12856996e-01, 1.04420736e-01, 1.09222531e-01 ]
      - [ 0., 0., 0., 0., 0., 0., 0., 0., 0., 0., 0., 0., 0., 0., 0., 0.,
          0., 0., 5.75688422e-01, 5.75688422e-01, 0., 0., 0., 0., 0., 0.,
          5.75688422e-01, 5.59799314e-01, 5.59799314e-01, 0., 0., 0., 0.,
          7.31653720e-02, 2.21203148e-01, 5.59799314e-01, 5.75688422e-01,
          5.75688422e-01, 0., 0., 0., 0., 0., 0., 5.75688422e-01,
          4.85247612e-01, 4.85247612e-01, 2.21975818e-01, 0., 0., 0.,
          6.33971989e-02, 4.85247612e-01, 4.85247612e-01, 4.91012901e-01,
          4.91012901e-01, 4.91012901e-01, 0., 4.95704561e-02,
          4.97323386e-02, 1.32518159e-02, 1.60047159e-01, 4.91012901e-01,
          4.47138518e-01, 4.47138518e-01, 3.59228589e-02, 0.,
          1.81748956e-01, 4.47138518e-01, 3.67998093e-01, 1.61420152e-01,
          4.47138518e-01, 5.18962741e-01, 5.18962741e-01, 4.77245450e-01,
          0., 3.92520279e-02, 3.64681743e-02, 3.51326261e-03, 0.,
          4.74896014e-01, 3.96831363e-01, 3.96831363e-01, 1.75401308e-02,
          0., 3.96831363e-01, 3.96831363e-01, 2.85675317e-01,
          3.56008530e-01, 3.96831363e-01, 4.57411140e-01, 4.52647716e-01,
          2.66512752e-01, 0., 4.57411140e-01, 4.57411140e-01,
          1.64707348e-01, 1.62359655e-01, 1.95826769e-01, 1.10267224e-02,
          1.33120380e-02, 2.77721845e-02, 0., 6.76774919e-01,
          6.76774919e-01, 2.75774091e-01, 0., 8.59146006e-03,
          9.59023833e-02, 4.16878223e-01, 4.48579788e-01, 4.48579788e-01,
          4.48579788e-01, 4.48579788e-01, 8.62737745e-02, 0.,
          1.40022952e-02, 1.33490032e-02, 3.33474949e-03, 0., 0.,
          6.73211515e-01, 6.73211515e-01, 2.94187754e-01, 1.69128447e-03,
          1.06364321e-02, 1.73818655e-02, 0., 0., 0., 6.70284212e-01,
          6.70284212e-01, 3.06821108e-01, 1.76422496e-03, 1.73818655e-02,
          0., 0., 0., 0., 6.99363291e-01, 6.99363291e-01, 1.21658042e-01,
          0., 0. ]
      - [ 0., 0., 0., 0., 0., 0., 0., 0., 0., 0., 0., 0., 0., 0., 0., 0.,
          0., 0., 0., 0., 0., 0., 0., 0., 0., 0., 0., 0., 0., 0., 0., 0.,
          0., 0., 0., 0., 0., 0., 0., 0., 0., 0., 0., 0., 0., 0., 0., 0.,
          0., 0., 0., 0., 0., 0., 0., 0., 0., 0., 0., 0., 0., 0., 0.,
          7.04615593e-01, 0., 0., 0., 0., 0., 0., 0., 7.04615593e-01,
          5.75062871e-01, 5.75062871e-01, 4.65368070e-02, 0., 0., 0., 0.,
          0., 5.75062871e-01, 5.17848670e-01, 5.17848670e-01,
          1.31143555e-01, 0., 2.33412743e-01, 9.58613399e-03, 0.,
          3.44317555e-01, 5.17848670e-01, 4.94437903e-01, 4.94437903e-01,
          2.48167664e-02, 0., 4.64713573e-01, 2.11640850e-01, 0.,
          1.69967115e-02, 4.94437903e-01, 3.91143739e-01, 3.78146172e-01,
          0., 0., 3.91143739e-01, 3.58508140e-01, 3.91143739e-01,
          3.35553586e-01, 3.91143739e-01, 4.91970748e-01, 4.28229570e-01,
          1.54190063e-01, 2.33917847e-01, 4.91970748e-01, 8.43100697e-02,
          0., 0., 4.91970748e-01, 4.75943536e-01, 2.15464011e-01,
          1.93017293e-02, 0., 4.75943536e-01, 4.75943536e-01,
          7.30911270e-02, 1.92399666e-01, 4.75943536e-01, 3.83596152e-01,
          2.60188520e-01, 7.30634248e-03, 0., 5.96533954e-01,
          5.96533954e-01, 7.21731922e-03, 1.89983342e-02, 2.58896798e-01,
          2.58796602e-01, 5.14356270e-02, 0., 0., 5.35192132e-01,
          5.35192132e-01, 5.35192132e-01, 1.17481634e-01, 2.27903768e-01 ]
      - [ 0., 0., 0., 0., 0., 0., 0., 0., 0., 0., 0., 0., 0., 0., 0., 0.,
          0., 0., 0., 0., 0., 0., 0., 0., 0., 0., 0., 0., 0., 0., 0., 0.,
          0., 0., 0., 0., 0., 0., 0., 0., 0., 0., 0., 0., 0., 0., 0., 0.,
          0., 0., 0., 0., 0., 0., 0., 0., 0., 0., 0., 0., 0., 0., 0., 0.,
          0., 0., 0., 0., 0., 0., 0., 0., 5.75688422e-01, 5.75688422e-01,
          0., 0., 0., 0., 0., 0., 5.75688422e-01, 5.46191216e-01,
          3.24941218e-01, 4.03980732e-01, 6.42383099e-02, 0., 0.,
          1.57324538e-01, 3.16593021e-01, 5.46191216e-01, 5.08250535e-01,
          5.08250535e-01, 2.51379699e-01, 1.27996936e-01, 3.72309148e-01,
          2.65832730e-02, 2.15384029e-02, 2.46716104e-02, 5.08250535e-01,
          4.92271394e-01, 1.93823338e-01, 0., 0., 2.05782890e-01,
          4.92271394e-01, 3.32643360e-01, 2.78431892e-01, 4.92271394e-01,
          4.33901697e-01, 4.33901697e-01, 1.38556346e-01, 1.86896473e-01,
          4.33901697e-01, 4.33901697e-01, 1.35728270e-02, 0.,
          4.33901697e-01, 4.10144895e-01, 1.43404439e-01, 1.95802867e-01,
          6.15818053e-02, 4.10144895e-01, 4.10144895e-01, 4.10144895e-01,
          3.03500623e-01, 4.10144895e-01, 4.84051198e-01, 3.07664692e-01,
          3.40104610e-01, 2.95004666e-01, 4.84051198e-01, 2.59660214e-01,
          1.42233133e-01, 5.68626188e-02, 3.71901631e-01, 3.85930389e-01,
          5.46051785e-02, 0., 0., 5.47155380e-01, 5.47155380e-01,
          3.00542802e-01, 1.03242256e-01, 3.77980262e-01 ]
      - [ 0., 0., 0., 0., 0., 0., 0., 0., 0., 5.39803982e-01,
          3.47050697e-01, 5.39803982e-01, 0., 0., 0., 0., 0.,
          5.39803982e-01, 5.74696720e-01, 5.74696720e-01, 5.85875586e-02,
          0., 0., 0., 0., 0., 5.74696720e-01, 4.70381945e-01,
          3.32061648e-01, 0., 0., 0., 0., 4.70381945e-01, 4.70381945e-01,
          4.70381945e-01, 5.93271196e-01, 5.93271196e-01, 2.05588415e-02,
          0., 0., 0., 0., 0., 5.38248956e-01, 4.18044239e-01,
          4.18044239e-01, 4.18044239e-01, 5.34585565e-02, 0., 0.,
          3.45197350e-01, 4.18044239e-01, 4.18044239e-01, 5.03854632e-01,
          5.03854632e-01, 5.03854632e-01, 9.23661441e-02, 1.59314111e-01,
          2.04383567e-01, 8.79095793e-02, 4.69930023e-02, 3.84366751e-01,
          4.36971515e-01, 1.87496811e-01, 0., 0., 7.58910999e-02,
          4.36971515e-01, 4.36971515e-01, 4.36971515e-01, 4.36971515e-01,
          5.19800603e-01, 5.19800603e-01, 5.19800603e-01, 1.20538950e-01,
          1.91987187e-01, 3.24380964e-01, 3.00570223e-02, 0.,
          1.63448825e-01, 4.08911854e-01, 1.78594157e-01, 3.11091751e-01,
          1.96237147e-01, 3.32338035e-01, 4.08911854e-01, 4.08911854e-01,
          4.08911854e-01, 2.22369358e-01, 1.65705308e-02, 2.73913443e-01,
          4.45090294e-01, 4.45090294e-01, 4.45090294e-01, 4.45090294e-01,
          3.34633440e-01, 1.23256378e-01, 2.56493986e-02, 3.55466813e-01,
          3.55466813e-01, 3.55466813e-01, 0., 3.34592223e-01,
          3.55466813e-01, 3.55466813e-01, 3.55466813e-01, 3.55466813e-01,
          1.21429879e-02, 2.53413290e-01, 4.79652971e-01, 4.79652971e-01,
          4.79652971e-01, 4.79652971e-01, 1.02838442e-01, 0., 0., 0.,
          3.75859300e-03, 1.12757795e-02, 9.74154659e-03, 5.91634214e-01,
          5.91634214e-01, 5.36462128e-01, 7.74769187e-02, 0., 0.,
          4.74959224e-01, 4.74959224e-01, 1.57067716e-01, 4.74959224e-01,
          4.74959224e-01, 2.50189036e-01, 7.51411766e-02, 0.,
          2.80264039e-02, 4.06313479e-01, 4.06313479e-01, 2.66500860e-01,
          4.06313479e-01, 4.06313479e-01, 4.06313479e-01, 3.13400954e-01,
          2.14354452e-02 ]
      - [ 0., 0., 0., 0., 0., 0., 0., 0., 0., 0., 0., 0., 0., 0., 0., 0.,
          0., 0., 0., 0., 0., 0., 0., 0., 0., 0., 0., 0., 0., 0., 0., 0.,
          0., 0., 0., 0., 0., 0., 0., 0., 0., 0., 0., 0., 0., 0., 0., 0.,
          0., 0., 0., 0., 0., 0., 7.04615593e-01, 0., 0., 0., 0., 0., 0.,
          0., 7.04615593e-01, 7.04615593e-01, 0., 0., 0., 0., 0., 0., 0.,
          7.04615593e-01, 5.44864655e-01, 5.44864655e-01, 8.71291161e-02,
          0., 3.10378432e-01, 0., 0., 0., 5.44864655e-01, 4.57837909e-01,
          4.57837909e-01, 9.32283141e-03, 6.54024854e-02, 2.18704998e-01,
          4.57837909e-01, 7.35961422e-02, 3.15201432e-01, 4.57837909e-01,
          4.41962570e-01, 4.41962570e-01, 3.13427486e-02, 2.19878882e-01,
          4.41962570e-01, 3.95540327e-01, 5.63823767e-02, 7.28096664e-02,
          4.41962570e-01, 4.40487921e-01, 3.05366386e-02, 0., 0.,
          4.40487921e-01, 4.40487921e-01, 3.33752871e-01, 3.27349991e-01,
          4.40487921e-01, 3.99748534e-01, 3.99748534e-01, 3.55332315e-01,
          3.99748534e-01, 3.99748534e-01, 3.99748534e-01, 9.41356048e-02,
          0., 2.48775899e-01, 4.71143961e-01, 2.28433460e-01,
          9.25871357e-03, 6.49526790e-02, 5.27145386e-01, 5.27145386e-01,
          2.02668861e-01, 8.24508592e-02, 3.35611552e-01, 2.18660712e-01,
          2.66113222e-01, 6.51558787e-02, 4.57088202e-01, 5.62669039e-01,
          5.62669039e-01, 1.46460071e-01, 3.98666486e-02, 7.96542615e-02,
          1.72013909e-01, 9.03312676e-03, 0., 0., 6.52038932e-01,
          6.52038932e-01, 2.72101432e-01, 1.08256675e-01, 1.66588530e-01 ]
      - [ 0., 0., 0., 0., 0., 0., 0., 0., 0., 0., 0., 0., 0., 0., 0., 0.,
          0., 0., 0., 0., 0., 0., 0., 0., 0., 0., 0., 0., 0., 0., 0., 0.,
          0., 0., 0., 0., 0., 0., 0., 0., 0., 0., 0., 0., 0., 0., 0., 0.,
          0., 0., 0., 0., 0., 0., 0., 0., 0., 0., 0., 0., 0., 0., 0., 0.,
          0., 0., 0., 0., 0., 0., 0., 0., 6.10446811e-01, 4.98612285e-01,
          0., 0., 0., 0., 0., 0., 6.10446811e-01, 4.88618612e-01,
          4.88618612e-01, 2.08643079e-01, 0., 0., 0., 0., 4.85122114e-01,
          4.88618612e-01, 5.70112169e-01, 5.70112169e-01, 1.07733808e-01,
          0., 7.49632120e-02, 0., 0., 4.46913764e-02, 5.70112169e-01,
          5.28311431e-01, 1.51831329e-01, 0., 0., 1.61315560e-01,
          3.89104187e-01, 4.36770320e-01, 2.12725654e-01, 5.28311431e-01,
          4.57405865e-01, 4.57405865e-01, 1.35075256e-01, 2.67361641e-01,
          4.57405865e-01, 2.62341529e-01, 0., 0., 4.57405865e-01,
          3.82544160e-01, 3.82544160e-01, 1.40361235e-01, 1.01030052e-01,
          3.82544160e-01, 3.82544160e-01, 2.97034889e-01, 3.82544160e-01,
          3.82544160e-01, 4.12936687e-01, 4.12936687e-01, 2.07606778e-01,
          4.12936687e-01, 4.12936687e-01, 4.12936687e-01, 1.30072489e-01,
          1.12792350e-01, 2.65612006e-01, 4.08659518e-01, 4.21812609e-02,
          0., 0., 5.01265585e-01, 5.01265585e-01, 4.03119236e-01,
          7.67690763e-02, 3.94054413e-01 ]
      - [ 0., 0., 0., 0., 0., 0., 0., 0., 0., 0., 0., 0., 0., 0., 0., 0.,
          0., 0., 0., 0., 0., 0., 0., 0., 0., 0., 0., 0., 0., 0., 0., 0.,
          0., 0., 0., 0., 0., 0., 0., 0., 0., 0., 0., 0., 0., 0., 0., 0.,
          0., 0., 0., 0., 0., 0., 0., 0., 0., 0., 0., 0., 0., 0., 0.,
          7.04615593e-01, 0., 0., 0., 0., 0., 0., 0., 7.04615593e-01,
          5.75688422e-01, 5.75688422e-01, 0., 0., 0., 0., 0., 0.,
          5.75688422e-01, 4.96891946e-01, 4.96891946e-01, 1.60889383e-02,
          1.12868778e-01, 3.99344862e-02, 0., 1.53758600e-01,
          4.64863181e-01, 4.96891946e-01, 5.25659800e-01, 5.25659800e-01,
          1.15536898e-02, 8.10526460e-02, 3.85191560e-01, 9.86183584e-02,
          2.16441248e-02, 2.29366589e-02, 5.25659800e-01, 4.12637204e-01,
          4.12637204e-01, 0., 0., 4.12637204e-01, 3.37940663e-01,
          4.12637204e-01, 1.74145699e-01, 4.12637204e-01, 4.42238241e-01,
          4.42238241e-01, 1.22985179e-02, 1.30656064e-01, 4.42238241e-01,
          4.38357174e-01, 6.24857135e-02, 0., 4.42238241e-01,
          3.90445352e-01, 3.23041350e-01, 2.48154923e-02, 1.74088210e-01,
          3.90445352e-01, 3.90445352e-01, 3.90445352e-01, 3.13979745e-01,
          3.90445352e-01, 4.37891394e-01, 2.75760651e-01, 3.52596156e-02,
          2.47356877e-01, 5.34256160e-01, 5.25902390e-01, 1.42974839e-01,
          4.96044792e-02, 2.82024413e-01, 3.01555008e-01, 5.70467301e-02,
          0., 0., 5.53936601e-01, 5.53936601e-01, 4.55102205e-01,
          8.95766765e-02, 2.67292142e-01 ]
      - [ 0., 0., 0., 0., 0., 0., 0., 0., 0., 0., 0., 0., 0., 0., 0., 0.,
          0., 0., 0., 0., 0., 0., 0., 0., 0., 0., 0., 0., 0., 0., 0., 0.,
          0., 0., 0., 0., 0., 0., 0., 0., 0., 0., 0., 0., 0., 0., 0., 0.,
          0., 0., 0., 0., 0., 0., 0., 0., 0., 0., 0., 0., 0., 0., 0., 0.,
          0., 0., 0., 0., 0., 0., 0., 0., 5.75688422e-01, 5.75688422e-01,
          0., 0., 0., 0., 0., 0., 5.75688422e-01, 5.15621126e-01,
          4.97574598e-01, 3.53627473e-01, 1.10287443e-01, 6.02535084e-02,
          0., 0., 2.73301065e-01, 5.15621126e-01, 5.13863981e-01,
          5.13863981e-01, 6.36590347e-02, 5.12050986e-02, 4.01661068e-01,
          1.85812801e-01, 9.53668263e-03, 8.71846825e-03, 5.13863981e-01,
          4.43820626e-01, 2.83176862e-02, 0., 0., 4.43820626e-01,
          4.43820626e-01, 4.38874990e-01, 1.19358987e-01, 4.43820626e-01,
          4.33796465e-01, 4.33796465e-01, 1.44479945e-01, 1.86235413e-01,
          4.33796465e-01, 4.28554863e-01, 6.10884428e-02, 0.,
          4.33796465e-01, 4.12985474e-01, 1.41669199e-01, 1.52095631e-01,
          1.23008393e-01, 4.12985474e-01, 4.12985474e-01, 3.33519042e-01,
          3.79574925e-01, 4.12985474e-01, 5.27722299e-01, 2.54379660e-01,
          1.21089295e-01, 1.67170674e-01, 5.27722299e-01, 5.27722299e-01,
          1.17847428e-01, 5.52207381e-02, 1.87089354e-01, 3.87310177e-01,
          1.31979007e-02, 0., 0., 5.47695935e-01, 5.47695935e-01,
          3.56601626e-01, 5.56291305e-02, 3.37855369e-01 ]
      - [ 0., 0., 0., 0., 0., 0., 0., 0., 0., 0., 0., 0., 0., 0., 0., 0.,
          0., 0., 0., 0., 0., 0., 0., 0., 0., 0., 0., 0., 0., 0., 0., 0.,
          0., 0., 0., 0., 0., 0., 0., 0., 0., 0., 0., 0., 0., 0., 0., 0.,
          0., 0., 0., 0., 0., 0., 0., 0., 0., 0., 0., 0., 0., 0., 0., 0.,
          0., 0., 0., 0., 0., 0., 0., 0., 6.47584498e-01, 3.93450350e-01,
          0., 0., 0., 0., 0., 0., 6.47584498e-01, 5.41133583e-01,
          5.41133583e-01, 5.20487316e-03, 0., 0., 0., 0., 3.40723038e-01,
          5.41133583e-01, 5.62913358e-01, 5.62913358e-01, 7.59960851e-04,
          0., 2.06784427e-01, 2.89077051e-02, 0., 1.29774706e-02,
          5.62913358e-01, 5.21603107e-01, 0., 0., 0., 2.01641083e-01,
          4.56828564e-01, 4.44071174e-01, 6.40347600e-02, 5.21603107e-01,
          4.81477082e-01, 4.25101608e-01, 1.21315204e-01, 1.33357763e-01,
          4.81477082e-01, 2.93959498e-01, 1.02588432e-02, 0.,
          4.81477082e-01, 4.18581307e-01, 3.44865799e-01, 3.75495255e-02,
          2.28708908e-01, 4.18581307e-01, 4.18581307e-01, 1.31935760e-01,
          3.23913902e-01, 4.18581307e-01, 4.46794599e-01, 4.19010967e-01,
          3.83369029e-02, 2.58606791e-01, 4.46794599e-01, 4.46794599e-01,
          6.40665274e-03, 2.51650643e-02, 3.89960617e-01, 4.73512471e-01,
          0., 0., 0., 4.73512471e-01, 4.73512471e-01, 3.72052550e-01,
          3.67020741e-02, 4.27619398e-01 ]
      - [ 0., 0., 0., 0., 0., 0., 0., 0., 0., 0., 0., 0., 0., 0., 0., 0.,
          0., 0., 0., 0., 0., 0., 0., 0., 0., 0., 0., 0., 0., 0., 0., 0.,
          0., 0., 0., 0., 0., 0., 0., 0., 0., 0., 0., 0., 0., 0., 0., 0.,
          0., 0., 0., 0., 0., 0., 7.04615593e-01, 0., 0., 0., 0., 0., 0.,
          0., 7.04615593e-01, 5.68012476e-01, 5.68012476e-01, 0., 0., 0.,
          0., 0., 1.62521988e-01, 5.68012476e-01, 5.75688422e-01,
          5.75688422e-01, 0., 0., 0., 0., 0., 0., 5.75688422e-01,
